458 300
<unk> 3.7220631 -0.0152587 -4.1770955 3.2466107 0.1240829 2.6704349 -4.3899503 -2.1080533 3.1942624 -3.6622300 -0.2831582 -3.3786537 1.6011466 -4.7658346 3.5112661 3.5924213 -1.7188790 -0.4455061 2.1071299 4.3506596 -0.2789820 2.5526564 -4.0813357 1.6814325 -0.0530028 2.5752146 -0.2935380 -4.0302103 -2.8517739 -3.4149836 0.0788455 1.7906185 2.9915146 -3.8444998 -2.1871707 2.4584615 2.8060829 3.1392056 0.1978791 3.1530859 -4.2076622 -1.0965208 -4.2251284 -2.8323074 1.2355033 1.4394282 2.5222694 -0.3931756 1.6619937 -3.6272958 2.6130711 1.9831620 -2.8847138 -3.3480586 0.4020763 -4.2335795 4.1274534 -1.3941842 1.6555698 -2.4062360 -3.4994845 1.7880049 -0.6240560 -1.1097975 0.1355790 -1.0687794 0.2672114 -0.0870816 -2.4567376 -0.7404539 -0.5744237 3.6364657 3.6385965 1.3554025 -2.7812206 -3.3632038 1.5727353 3.9248343 3.8951865 -2.9536235 0.1320905 -0.4559069 -4.7922141 0.8984334 1.6163399 -0.9451776 2.5213839 -0.5215453 -2.4338468 -2.0751288 2.0961509 -0.5049130 0.4100158 1.2057841 -0.8124306 -3.9853881 3.1417284 1.1719943 3.7446502 1.7433475 1.6491570 2.0497373 -2.4710842 -3.9696942 1.5247238 -1.3200105 3.0556821 2.9685593 1.5207170 -2.2350767 3.0644633 -3.5430213 -4.1602024 0.6783576 0.0094137 4.2429534 4.2300919 2.1429659 -0.8645938 -4.0142278 -3.0360842 1.9068378 -4.3769326 0.6133757 3.4076704 -2.1432847 2.6112782 -3.4232792 -4.2446493 2.0295615 0.2634782 0.1706512 -0.8839966 3.0733678 -2.7856520 3.3333476 3.8844960 -1.7592542 -3.3047471 3.4305673 3.4238490 0.2578470 0.5820034 -2.8265094 4.5701329 4.5419890 -1.2033849 -0.4207731 3.8263657 -1.3827379 1.6596553 1.1124946 -2.1874765 -0.4796520 -2.5796817 -2.5684969 -0.4032379 -0.5032045 -0.9220053 0.8506282 1.9270961 0.8707813 1.7638727 1.5121770 -3.2705641 2.8281748 1.4965430 -1.9586911 5.1007575 0.6410674 3.3795482 -1.4990132 3.7976660 -3.0747184 1.9763444 4.0001398 0.9268183 -1.1362373 -0.3857833 3.3397509 0.7243105 -0.1685765 3.2529624 -2.1687268 3.4800350 -2.0607797 0.8465478 3.7866566 2.8836495 -3.4360469 3.2163942 -0.6485366 0.0433839 1.3298814 -0.1781689 -3.4824987 1.4178606 2.1593120 1.9901785 -1.8343254 3.5159470 -1.6141245 -1.4962705 -4.1108659 2.0071290 -1.0309559 -4.2735226 -2.2830354 2.9512571 -0.7182458 3.4826248 -0.2155407 -3.5909186 1.7291820 2.8193340 1.4895382 0.0200337 -3.8470699 -3.3390569 -1.4672712 2.8083444 -3.7003256 -4.5062501 -1.5747854 -1.1512717 -2.7657528 -2.9875985 0.5546905 1.3371909 3.7305031 -3.6999904 4.3503829 3.4779056 3.5056740 0.0147853 1.6721197 3.8483844 -1.9587021 0.5577761 0.2991281 4.4365267 -3.5341269 -2.0839377 4.3996902 -4.1612685 3.0794818 1.0800120 -2.6909977 1.0066084 -3.2070486 -3.5800093 -3.2835996 2.0892259 -0.1535080 1.0469661 -3.2292256 2.4960624 -3.2273481 -3.6603474 2.7421828 3.4808366 2.7310514 -1.4544199 2.7274738 3.7618148 -0.2554257 -2.4016032 -2.4715526 -2.6295207 -2.8366182 -2.6269229 -4.1881108 -4.2594657 1.9889788 1.9963608 2.2335480 4.4579924 -3.7611413 3.8246175 1.2488273 1.4131896 -0.3078528 0.6103521 -0.7198716 -2.3207808 -1.3681266 -2.8621113 -2.6418045 1.9059419 4.0792674 1.2760289 -0.5804874 0.4567351 2.8738777 1.4181663 -1.9454134 -0.4479531 -3.9506210 2.9092633 -4.1064331
misinterpreted -2.2063033 -0.6786372 -0.4262917 1.2978348 -3.4437777 1.7493433 1.1297276 -4.5593906 -2.9909002 4.7370456 5.3556373 0.8978055 2.0843245 -2.3283110 -1.3175138 -0.1144492 -0.9135521 2.0136024 2.3215752 -3.4488645 1.5137266 -2.5464598 -2.1715799 -2.1482912 1.9093745 -4.8809891 -2.6182835 -1.4492803 1.1570862 1.3878101 3.6805617 1.4993237 -2.2295408 -2.2556036 -4.1085162 3.1170167 2.6693379 -0.9510455 -3.7002387 3.9961471 -2.3060309 -4.9743622 -1.2014894 -0.8599141 2.0248068 -3.8522281 0.0626851 -3.7164349 -3.3621759 -4.0231883 -4.2062625 4.7154944 -1.9980939 -2.6522383 -4.7113909 4.6893120 4.0973064 5.0921851 0.3146421 2.5336614 0.3190506 -1.5593313 -0.0416235 2.6046674 4.7198885 0.1462254 -2.4208788 -1.5202094 -0.5040899 -1.0375763 -1.4509730 -2.4646310 -2.3628816 3.7284258 -0.9910018 -4.6935419 -1.8169579 3.1332310 4.6898927 -4.8828138 -2.6368376 1.4703988 1.1776966 -1.7445794 -1.5804921 4.6714066 -1.1966070 -0.9011646 -0.7368722 -2.9543270 2.3119712 0.7457674 -1.7222971 -4.5320328 -2.6565394 -4.7101640 4.7462740 4.9193456 -2.0150343 -2.1396835 1.3256388 4.2161988 0.6992022 0.1192403 -0.6933166 2.5991951 0.3501830 -3.7144793 0.2302615 -3.8952011 1.8236596 4.4246663 1.3257485 -0.0935265 -2.7260942 -1.3274953 -1.2555608 -3.4336424 -4.3482467 -2.7736979 -4.9436245 4.7825281 -3.3997797 1.5025591 -2.5316114 -4.5895092 -4.4693195 -2.0293561 2.9442473 2.1081497 -2.3205080 3.5534839 -2.4571897 -1.7121130 3.2154476 -1.8522277 -1.2967691 -0.6211836 -3.3111186 -1.1064011 0.5714577 -3.2834763 2.1885454 -3.9202689 -0.6888997 4.8388881 -2.0647486 -0.6493289 1.4407634 0.0612060 1.2975401 2.4624999 -1.8452500 -3.6235317 -1.5281451 -4.7640300 2.3581725 1.1121046 2.0471576 -0.3012711 -3.6986929 -2.4907666 -0.7879410 2.1051995 2.6673540 2.6128414 -2.5576385 -4.8195031 -2.7443852 -2.5435703 -3.8800763 1.5638535 -0.5753558 5.1984764 4.1037213 -1.5310542 -1.5727934 -0.9589936 1.3808932 -0.5420096 -3.5814365 0.6493042 1.5473788 -1.1365639 0.8127026 2.9950238 -2.8341394 0.4316467 4.3382984 -4.0283884 -0.8463233 0.5388624 4.0894829 -1.3872567 2.0894719 0.5843845 1.4543993 0.6803784 -3.9208647 0.4729750 -3.9725672 0.3682125 -1.5224149 -1.8396033 0.9411331 2.5470087 1.1260769 -3.9870071 -2.1922616 0.3235675 3.9278360 -1.3207697 -1.6515223 -0.1932074 4.4957901 0.7519029 2.6610760 -3.9737544 2.6627216 2.1804536 0.0150922 2.7337060 -4.1644217 0.9230093 2.5314266 -2.3054719 0.6001712 -0.1318885 4.1191046 2.8643680 -3.5553740 2.3081146 -1.9738897 3.8689019 -1.3090731 -2.8829500 4.3812495 -0.5238092 3.1312098 1.8525049 -1.3092865 4.2597105 -4.0288475 -1.0358990 -3.8107618 -1.8631392 3.5051842 -1.8029407 -3.9418579 5.3466967 2.3357039 -0.1603343 3.7468162 0.1904789 4.0954914 1.9876003 1.9530352 -2.9576624 0.7581784 -3.6252188 -1.5280456 3.5634857 -0.9913046 1.2691042 -2.8660072 -4.1486756 5.3210179 -2.3720101 -2.4581636 0.0820746 -1.6438067 -2.8696521 2.3275532 -3.5068863 -2.7089606 1.1033333 -0.4153201 0.4859783 2.5678862 -5.0554948 4.8455826 -3.0289399 -0.9566430 3.4147676 -0.2739837 3.8856076 -2.3611661 3.4690017 1.2981648 4.0437185 1.7799921 3.1924773 -2.6457491 4.1029810 -1.6985963 -0.6885300 2.8046651 1.1289713 4.0315671 -2.3280171
limitless -1.1676916 -3.4719974 0.5664129 -1.3818082 -0.2022505 4.3137061 1.3420664 -1.5280261 -1.2203837 2.6807925 1.8039287 -2.8882822 2.4652555 -4.2911489 2.4980749 0.2228681 -2.4142825 1.4248429 -0.6951759 -4.3375005 -1.4759804 0.4871845 -1.1219701 0.1784807 4.0241324 0.6301196 -3.2187356 -3.7846315 4.7819388 4.3286441 4.2104687 3.8741148 -1.7316369 -1.5605845 4.0406804 2.9138641 -1.9000846 3.5892157 4.8637346 2.6926832 1.7917335 -2.6424358 -2.0628465 0.1398609 5.4637006 1.8299741 -4.0119039 -3.3150390 -2.5383393 2.8901484 -2.7539939 4.5207237 -1.1358942 -3.3548678 -3.5090362 2.2022259 -0.5327482 4.7520326 0.3863313 -0.4637265 -2.0839117 -3.4312141 -1.1370770 2.6943176 -4.3178140 0.1921121 -0.8580834 -3.1784797 0.0486483 -4.7996143 0.3034747 3.0777097 -2.3888255 -3.3487845 4.0611815 -3.9695395 1.3510149 -0.2960701 1.0762507 -4.5913352 -2.9589725 -0.7212986 3.1155083 4.1999327 0.3429462 -0.3163077 -4.7753367 3.9403236 1.5236446 -0.5694057 1.5947313 3.2161075 -1.4346411 -2.7170199 -0.2477000 -3.6586927 3.7505207 0.9039525 -1.4321731 2.4813104 -4.6596348 -0.6672063 -4.1600253 -4.4507721 -1.1480189 -4.8176894 0.6999248 3.7975304 3.3936701 -4.5726512 5.1377370 -3.4173777 3.0550210 -2.9900430 1.7908576 3.4417360 3.4616616 0.3756334 3.0515971 4.3050756 -1.3667810 3.4580565 3.4505204 -3.5368525 4.0545606 1.5745859 0.0685374 -4.0401770 3.2926304 -1.1173891 3.8855616 -2.3206644 -1.9303330 -3.0015964 -0.9397611 0.5283313 -1.7737522 -1.1781992 -0.2685920 -2.6670841 -1.2863946 -4.8245659 4.1651908 -0.2748786 -4.5801565 -0.2292062 -4.3428126 -4.3952855 -1.9843036 -3.3850478 3.1142520 -1.1257000 -4.1595116 -3.0380660 -1.9835767 2.3139706 -0.1020038 3.4426344 -2.3060813 -4.1212363 -4.1828207 -1.4756693 2.4176512 3.0448168 2.3951248 1.8260539 -5.0205952 -3.5305840 5.1085234 2.1032770 -2.5906888 -4.7236079 2.5495311 -0.0520837 1.6668748 0.7492152 1.9413116 3.3985087 4.4913985 4.0407214 -2.9859416 -4.6367181 -3.6560623 2.8184171 -4.3503741 4.9443966 -1.2816833 3.2954269 1.2538675 1.8845880 1.1130717 -2.3219149 2.8587933 -2.4069080 -0.9496402 4.1793203 -0.7532505 -1.9210109 -3.6522844 4.4529175 1.1513373 3.1428850 -4.8321277 -3.0164455 -0.5797691 2.1553288 -4.4757889 2.7600733 3.1616352 -0.5898762 2.4404781 4.6062791 -2.3511644 -2.6130179 1.6347871 2.5219003 2.7988832 -0.7552008 0.7697966 -2.3155636 1.7527043 1.2448517 1.5498357 -2.5916267 3.0626662 -1.2747789 4.0701084 -1.5617418 3.1391412 4.2595627 1.8748145 -2.3119055 -4.5467397 -4.4778457 -3.5163557 -2.5344622 4.4221214 -2.5585054 -4.9192667 -2.8712942 4.5565293 4.1608933 0.7929962 1.1227775 1.3583046 -1.2235984 1.3539780 2.8281793 0.9704008 5.3038146 -1.1719807 -1.6495283 0.9283363 3.7110840 3.4010413 5.0725062 -1.8177886 3.5689503 -4.5260855 -0.4327282 -3.9688184 -4.0990137 4.3190568 0.2769832 4.5670654 3.3238194 3.5486816 1.7111220 -1.5807163 -3.6308148 -3.6322319 4.1198645 2.5491434 1.6463287 -0.2901435 4.1536481 2.4351797 -5.0004042 2.0500818 -2.7919840 3.6407697 -0.6226257 -2.7173005 5.2215462 -0.4105632 0.7594465 -4.6392308 3.4641589 -3.9118594 -3.4478675 2.3718839 -1.7506997 -4.9828163 4.1014012 2.7392871 4.6865024 0.7903448 1.2424199 2.1507404 -2.9597663
rival -0.4841262 -1.5460726 -2.3694292 -1.9292847 1.3017259 3.1431664 -3.9889558 4.3872017 -2.5178057 -1.3922798 3.1582909 -4.5271675 2.0128162 0.3649104 4.0659379 1.7776569 3.7402563 -4.6067317 0.7764550 1.9298204 -0.8355732 4.0474229 -0.2496567 2.7814530 -2.8918032 1.7605745 -1.4499980 -3.6374656 3.6290687 4.2339340 -1.2852438 5.4440744 5.0105220 1.9133153 4.6617880 -1.3981078 -1.0084698 0.7505190 -3.1799701 0.7378641 -1.8803581 0.2378011 -2.4218470 -2.4208511 0.4969226 -4.2663029 1.9302076 0.7790634 3.8162174 -4.4355841 2.0939681 -1.4298885 0.4577159 -2.8444913 0.1674823 4.0540558 -3.5025686 2.9226671 -0.8693833 -4.2082407 -2.7076218 3.4601789 -4.2636915 -2.7651195 -1.2055853 2.1498862 -0.8224530 2.4589965 3.3931370 1.4551218 3.8064129 3.5503220 3.0105052 -0.7950502 -3.1485864 0.4829059 0.2594067 4.4313626 -1.9083721 3.0946151 2.6065667 5.2417051 -4.9910969 -4.8994713 -3.5100830 1.5446893 -2.0500596 -0.2428689 3.0703664 -1.6809562 -0.7118640 -0.1579412 -2.9572181 0.7084393 -2.9579679 -0.0910594 1.9120039 -0.9096490 2.7157241 -1.7259909 1.2466018 0.9261575 -0.8785202 2.5223138 -2.9508258 -3.7109842 1.9998863 -0.6533314 -0.2938975 2.5751687 -2.4102781 -4.5851474 4.0137501 4.4303007 0.5403904 -1.4081876 2.8325282 2.4978996 1.1853300 -2.6303510 3.1514439 -1.0122185 -4.0587313 -2.6685125 3.6695850 -3.8849350 1.6662314 -3.6486180 -3.3811986 4.0292095 -1.0590709 -1.4435721 -0.2886690 -2.8463916 -0.4326457 2.3251022 -2.9612960 1.4863537 -3.5255521 -0.2253465 3.4621794 -2.7473007 3.7980465 0.1797438 -2.0082672 0.4499285 3.9597925 3.1229979 5.1209570 -0.6552260 4.8737294 -2.7646827 3.5453774 -0.7223920 3.7291020 4.0193710 1.9162369 -1.7273325 -2.1905931 2.5977648 -4.4412873 -1.8858565 -0.8977956 0.0264985 -1.9432331 -3.6942538 1.7435226 3.2613407 5.4088335 3.1223811 2.7521646 -3.0272334 0.3280433 -1.1513119 -2.6553582 2.0632098 4.6232241 -3.2065418 3.5767991 5.0294555 0.0877248 -2.6612192 -0.3740038 3.4470463 -1.0061728 4.5424859 3.3277767 -3.9851189 -1.9638295 -4.6996426 -2.9747459 -0.1429420 -0.7232099 -1.5140572 -3.8955034 5.4512947 -1.1876881 3.4126340 4.4522256 1.8726997 -2.0495152 3.2486053 -1.3149670 1.6505720 -3.5678672 0.7730217 -1.6601718 -1.8577115 -3.8614034 4.4534250 2.0011920 -4.8682973 0.7032302 -5.4124343 3.7650101 -3.4090421 2.5939967 -3.5593995 0.7407867 -3.6326542 -4.4035488 -3.9367253 -4.6929319 5.5763046 -3.3710796 1.5335401 1.2749317 -0.9221917 0.9787349 -2.1735185 1.1996805 3.8252810 4.7765745 -0.1599220 -1.8640383 -0.5045190 -1.9777997 1.3147539 -0.7327416 -4.0157889 4.4347372 -0.9409421 -0.8819251 1.1443568 -0.2060529 2.2397151 -1.7742743 0.1563589 -1.2972240 5.8186049 -1.9391518 0.6832119 -0.6926454 -0.5226469 -3.1124106 -1.6166188 -1.4114857 0.3448164 1.0531413 2.1887941 3.2697599 4.0174750 1.8554637 4.9663748 5.1205234 3.1382730 -0.4692010 -3.1689250 -3.1633366 -4.3517880 -2.9248968 -3.8194367 0.2798908 -2.2210888 1.9919309 -4.1675342 0.9579742 -0.9533001 3.3696458 -0.0739070 -0.5549440 -3.8041887 3.4511764 -0.9799316 3.8452545 4.0695496 4.6375050 -4.7096635 -3.6999639 4.8680845 -0.7812256 4.8306375 -1.6476257 -3.8447936 -3.0139647 1.9149147 -3.1965370 -2.5018023 2.8171200 0.5157335
herself 2.8187512 0.6469217 1.5803032 -4.2007401 -1.7197866 0.5465440 3.5310208 -3.0128162 -0.5836076 -4.3665530 5.0784705 -4.3485468 -4.9201673 -2.9758044 3.3393144 2.7842660 -1.6800780 -2.6114500 -3.7276536 -0.1044389 1.7199174 -0.0465155 2.6838323 -3.9671178 -1.6053561 4.4968596 3.0091802 1.8869919 -2.2693189 -0.8142730 4.0550588 3.0214451 -3.3113342 4.5027504 -2.9867031 -3.1313510 2.4799924 -2.8707869 -2.9590933 -0.1558560 2.8564813 -1.7057003 -1.0281192 0.3083829 5.7209343 0.5687198 5.0116490 -4.5866483 2.0658033 1.6971096 -1.6521133 0.5449563 -1.7218847 3.8237154 0.9598022 -0.4227109 3.5574958 -2.8937705 3.8346593 -0.6502895 1.1349250 -1.7419921 3.5830950 -3.3907196 0.5309090 -2.2486811 3.9044751 1.8254529 0.6714776 -4.8037810 3.6975279 2.6586460 5.2754107 -1.4919835 3.5318652 1.0086633 -3.3978167 -1.8212849 4.4857386 4.4877608 1.6979570 -1.9542115 1.0287010 -4.1249481 -2.9518928 2.9494052 2.0612988 -0.7309147 1.9834563 -1.2177161 0.8285098 -1.8338147 -0.7003749 2.6335412 -0.9964065 3.8309109 -3.2621599 2.2380701 -2.7541983 -1.3872146 -0.8247231 2.4826876 0.7354211 0.3546333 -4.2738240 -4.0013502 -0.8633609 0.1301336 -0.6402284 0.4269892 4.8983447 -0.9748759 1.3697082 0.5881506 1.6416611 3.7983961 2.3167491 -0.9552452 -0.7769185 -3.9778328 0.0567223 -2.3537956 0.7018846 -5.2368964 -3.4677457 -2.8825197 -4.9789001 3.9955824 -2.1163911 -2.6376292 -2.7424711 -1.8908500 4.2236949 -1.1211460 1.7471615 -3.8970934 -2.9481688 4.3945623 2.9256883 1.8341182 -3.6787240 -2.6694610 0.2521387 -4.2530016 -2.2959278 5.0478483 4.6498983 3.6197184 -1.8850136 -2.9730315 3.8704533 -2.7403558 -1.9309641 -0.7425608 -0.6613539 -2.8263273 1.3258876 -3.5003118 -1.3772490 -3.3897639 3.6596175 2.9282633 0.7415131 0.4020335 -0.7601312 -4.3531920 -4.2682942 3.4722269 4.0146909 -1.1993006 -0.3646963 4.4329629 -4.3418190 3.5126877 2.0937469 -2.7668953 1.7075065 -3.8483660 5.1006345 -1.5538574 -1.2736022 -3.4638802 1.7035062 3.3604325 4.1506733 -1.2440374 4.8140327 1.3367524 3.7046898 0.1729163 1.7350593 -5.3809040 -2.5286787 -3.3099997 -3.9846511 3.7827811 0.3789338 2.8962205 5.2233694 -3.9866485 -1.4321626 -0.1972030 -1.3268313 -1.4049703 0.0133455 3.9949514 -2.0120733 -3.7381280 4.1558257 -1.0411993 2.0602471 -2.6713352 2.3807300 -4.0040992 -2.2924231 1.2435331 -3.6505898 2.2371950 1.1488319 -3.4179217 3.2779312 3.5973771 1.9107095 1.8611825 -3.2090236 -2.0273065 -2.1534794 3.7471187 4.7117110 -1.5473688 2.7492158 1.5071971 -4.0841169 -1.8635574 -1.7619398 1.0214739 4.0014276 1.5441704 0.7844828 -4.3283998 0.1846617 -3.2239404 -0.0854059 -3.4980428 -3.4741917 2.1219933 -0.1072096 3.0898865 -0.1544447 -3.2167491 2.1550408 3.0055205 -1.6762954 3.0501252 -0.2249391 -1.9155740 -0.3270646 -0.7647784 4.5208383 -4.1666478 0.7702968 -2.5986251 1.6415705 3.3778039 0.3179531 4.3820742 3.3492067 3.7384633 3.5788499 2.5640141 1.5897681 -0.6038338 4.0862618 -1.6355206 0.4137046 -1.9719717 -3.1572860 1.0841908 1.5671848 -3.2620688 4.1994195 3.8147667 -3.5924724 -0.5703085 0.5460691 5.1664528 1.4406529 -4.6651634 -0.2615691 0.7244297 4.4083181 4.8278523 3.1497423 -0.3539505 -4.0800038 0.9277878 0.7064579 -0.9733227 -4.8866138 -1.4240740
insignificant 3.8776258 -1.0769067 -0.9609695 4.4178092 -4.3960848 -4.0053103 -4.9109857 -0.0369461 -0.6701146 3.5626143 -1.5551831 2.1521620 -2.4963491 -4.0694301 -0.0870365 -3.2200268 -1.1252411 2.0280237 -3.7786099 4.0817311 -3.0241343 5.1148564 2.4318436 -1.1396401 4.2256079 -3.8800511 -2.6228085 2.4429642 -2.3239905 2.4205650 1.6613385 1.7347588 1.9656094 3.0451780 -4.7256454 -2.9825458 3.9543988 -2.0499798 -1.6199152 -4.7447551 -4.4108423 -3.8172344 -0.9320746 0.1405568 3.8175077 0.8203182 3.1889810 4.4126733 1.7637359 -0.9370352 0.2220771 1.1897866 -2.1893393 -3.5086255 -4.6680289 4.7776090 3.5379120 0.6753969 2.9054638 0.2761981 -4.4822683 2.1619483 0.6535278 3.6958526 3.6470161 -4.7869916 2.1801927 3.3098470 0.2812663 -4.8951853 -2.0736936 3.3954668 4.2825967 -1.4214236 1.9409918 -0.3027647 -1.5032201 2.7664070 -2.3497407 -0.8018784 -3.5423479 4.1853488 3.7603494 -2.3563897 -3.3290947 3.8541291 -2.3316012 -0.9031114 -0.2669403 -3.9936403 -4.7979899 -3.6644777 -0.9469030 3.5166570 -3.6776616 -1.9129550 0.5951659 -3.5546176 -1.7828410 -4.0306854 -2.6386934 -0.2115906 -0.6441158 0.2664084 1.2738959 -1.5638925 3.5549881 1.3516177 -2.3358841 2.4574532 -2.3464875 -3.8540802 -1.9083908 4.4340002 0.6655001 2.8625042 -0.7550952 2.7739915 2.9030779 0.1007305 2.6463369 3.3507972 -2.0869620 -2.6862793 3.1205543 3.6478591 0.4244384 -3.4300789 -4.7122957 -2.5057833 -4.0759287 -0.5445627 1.3906925 -2.5902022 -1.8990402 -1.5268770 -3.4826372 -3.5271539 -1.7103501 -4.0685486 1.1371141 -4.3174353 2.9426711 -3.7101890 5.2064871 -1.7348839 1.2822581 0.8335463 -2.2164914 -2.8696959 -2.3404174 -0.9610855 -0.0967604 -2.5569984 -3.5125148 0.8429110 -2.2634815 -0.0758002 1.2635675 0.0857375 2.7812805 0.1354870 -1.3311149 1.0627047 3.7843866 0.2518783 -2.1722026 -3.2624236 -4.4871905 -1.0286313 1.7698796 -1.4726159 -0.1916254 -4.6228886 -4.6555123 4.0734489 -2.1495459 0.0345341 -0.0493250 0.2776963 -4.5888726 -4.6075009 4.7005649 2.5222998 1.3065770 -4.5283438 -0.3167634 0.3688319 -1.8051196 0.4207307 -2.2028068 1.4841972 -4.3945363 -2.7601047 0.2941618 2.2366239 2.2783083 -2.6808431 -0.0174508 -3.9823640 4.1169788 -1.2185077 3.4229075 -2.9318696 -3.6206634 -3.4739987 3.3305188 -1.5658442 -4.7148469 1.0154069 -0.7339581 0.0785717 3.9655746 -3.7240403 1.9283500 -0.2255016 -1.0892835 1.9268538 -2.4496401 0.4611930 -3.7676813 -4.6430900 2.5916052 1.8015459 4.7028172 1.9192309 -2.4561999 -1.3775081 3.0546901 -0.9080523 -2.4153875 3.8872987 0.9612188 4.8199805 2.9881736 2.8211051 5.1396440 -2.9836573 -4.5822187 -0.6889589 1.8466266 -4.3575311 -3.3005298 -2.7663735 -4.8113843 3.2942560 4.9272880 -3.8704820 -4.6127679 0.6988302 2.6069682 2.5517073 -0.3649617 1.6023757 4.5716477 1.3552071 2.3950555 -3.8682154 -3.4142996 4.0495719 -3.0254809 2.2867256 3.4630844 2.3648338 -4.4268682 3.3995233 2.6485351 -2.8872164 -4.4797093 1.9538395 4.4425029 4.4893981 4.5485497 -3.6950427 2.5273240 -1.3746298 3.7729366 -4.7154267 -4.8167660 -2.0549488 -3.9606100 -2.6203834 -3.7747502 1.4615290 2.3499971 3.2860332 -0.1035514 -0.9833991 -2.3913547 1.3051647 0.6850192 -2.5154916 -2.1759286 -2.9753840 1.0314154 -4.2195827 -1.9098896 -1.5678633 -1.2075904 2.7749071
Fellbaum -3.0862640 4.2800511 -0.9172558 1.7919373 0.1027244 -2.7768701 -0.1635152 -4.5124256 5.4339239 -2.1604074 -0.3134206 -5.5557593 4.0187555 -2.5038384 1.6387000 -1.3411829 1.1871992 -4.9767694 0.1815471 -4.4897887 0.6422939 -3.1627074 -0.3961547 3.2406404 4.8104396 -1.7611395 -5.1082873 4.9302629 -1.2822025 -3.5510389 -1.3275011 -2.4992601 3.1607681 -0.5982197 4.3338321 3.0769653 1.7436979 2.8263482 2.9004835 -2.9890465 -3.7059306 -4.6143390 2.6281235 -5.5905296 6.2134247 -2.8573930 -0.6965925 1.8298627 -0.3375703 2.2198390 2.3616933 1.3432799 -3.2652801 -3.4178187 -5.1929412 3.1379537 -2.8971381 -2.8444352 4.4519927 -2.3702207 -0.1891329 4.4296695 -4.7791116 0.1104953 2.0967036 2.8508080 -0.1164099 2.2088041 3.4569083 0.0734859 -4.4689068 -3.9199050 -2.3814074 5.0225572 -2.9298382 3.5274674 4.3226070 4.7405699 -2.0605255 -4.9583035 2.4846554 0.9423022 -3.4080787 1.1831375 -3.7277325 0.9534439 -4.1991286 3.4418542 -4.4841794 0.0455279 -4.5917169 -3.1128612 -3.8943566 2.5323730 1.8980878 1.3709105 -2.6784059 2.3569032 -0.4816783 3.0216816 2.2882367 -4.6269506 0.8993051 -4.9542008 -2.7704555 -2.6107286 5.1582692 -1.2249264 -3.3264245 2.3284586 -0.2961624 -0.1113959 -4.5743735 1.3946791 0.0789552 -0.1365515 2.0791138 0.8642691 -0.0209178 4.3077383 -2.0291214 5.5266698 3.0392706 2.2787246 1.3738235 -4.4055308 1.4032047 4.1562906 3.9278391 -3.9410564 4.3779667 -1.6198913 -2.2579938 -3.3539125 -3.1954408 3.4374864 -2.0554522 -1.2043198 0.5589805 -4.2586996 1.2899621 3.2288411 2.6483427 -2.6963168 -3.4003878 -3.3256392 0.3099561 -0.6152384 -2.4174973 -1.5235389 -3.6267290 -1.9841562 -3.9258843 5.0784979 0.8473291 -2.6657692 -2.0910909 -0.0053921 1.0465390 -3.9143439 -0.0092544 -4.2799003 3.3113186 1.9696598 2.8313306 -2.8716443 0.0547826 -0.1325244 -3.6233401 3.8598282 2.5271114 1.1834277 -1.8352246 5.5641750 1.7928821 -0.4506605 2.4731826 -4.8517757 3.7512806 -3.1358671 -2.3792243 -4.3964726 3.5959375 -3.5626329 4.5143161 1.1973656 -0.9053360 2.0888513 0.8422509 -1.2712691 3.5893397 -4.2706824 1.8498499 -3.8759926 -2.8442481 -3.5638008 -2.6638676 3.0562308 3.4058038 1.4638146 -1.6156258 0.1846082 -0.4688800 -3.6538830 -3.6840153 -2.7236994 3.5841090 1.8183094 -2.9591562 -4.1221288 2.1006346 1.2469945 2.4707977 -6.3314669 2.7695731 0.4159470 -1.7696899 -3.6264964 -1.2520657 -0.3003008 1.1504014 5.6619534 -0.6347475 -3.3448582 0.1402414 -3.2623094 -2.0587916 2.2274734 5.2699034 -1.9126401 -2.3329510 2.5422627 4.1582802 -1.3002728 3.5724123 -2.5851529 2.5544522 4.1591308 3.8461112 -1.1953595 -4.1013520 1.4886425 -3.8534284 -4.5395867 -1.7616648 3.1786614 1.6443293 -2.3301765 2.4791643 4.0506752 0.0322339 2.4485821 2.7129444 -2.2930092 1.5985658 -0.0137025 2.5437060 -0.9347599 0.0630982 1.6149691 2.2867653 -2.0154524 3.1945602 -1.5734361 -0.9257661 0.9423282 -3.5680791 2.5309584 2.5469011 0.2402403 0.4705964 1.1376908 -4.3815502 -0.4083318 -2.2417358 -3.1696954 5.6324777 -4.9615394 -1.5139357 -6.3794689 0.0816522 -3.7970685 5.1913790 5.1096763 -2.1237670 5.7162746 2.0656706 -2.8374984 -1.4683846 -1.3741592 -0.7141738 -1.7214837 -5.2594648 4.3300273 -2.4342290 -2.5117819 -3.1194746 1.0545280 2.5495018 4.9784022
Travel 3.2882962 1.4608591 1.9191240 -1.8831570 -2.6178746 -4.8228312 -0.1684948 -4.1755556 0.6328795 1.5540675 0.6265107 -0.7477716 -4.3347972 0.5531269 -0.4933861 -4.0930709 -4.6880332 0.8410819 -5.1835422 3.2063715 -1.9331908 -3.9610621 -2.3532855 -1.0679584 -0.5668724 -3.5238617 -1.0732529 -1.8554891 -2.3836235 3.3921056 -1.3367403 -2.8062739 4.8259239 1.2164029 -0.6206663 -3.1577614 -3.1949682 4.2659824 2.1219439 -3.4048795 3.1049315 0.8439591 2.9786802 4.2386017 3.8685322 -0.8838598 -0.1388643 -1.3467400 1.7523050 3.9260189 -2.9608897 4.2000342 3.8989079 -4.4021538 -4.0786480 -4.7949428 0.7932189 1.5598616 -2.4850715 -1.9645587 -2.4077395 4.0336467 -1.0034269 3.4711071 1.4098554 3.3099243 1.5059643 2.2661456 -0.9534165 -0.2731557 1.1790000 1.4758817 4.7762582 2.5178018 -5.3503771 2.0528906 -2.2383886 -0.7688511 3.6250937 -1.8820373 2.3334318 -1.9847940 3.5213212 -0.0493609 2.0982446 -3.9692569 -3.6330730 0.6710705 -0.0902718 3.4686465 -0.0586437 -4.8500726 3.8162322 2.3538161 1.5670988 -0.8412207 2.2931708 1.8745717 -4.3572521 -4.1207983 1.3337539 2.1715618 -0.4396022 0.2071694 -1.3898116 4.2382069 3.0796134 1.0004419 -0.5233765 0.9964341 -1.6645758 1.3554077 -3.7314269 1.9930254 3.3102385 2.4490817 0.4006384 -1.3832800 -0.6385104 1.9337463 -3.8357274 -3.2605676 2.0417069 1.5791903 -2.8479732 -3.0330539 2.8647074 -4.1624170 1.5380447 -4.1068107 -2.8972545 4.6849478 -4.7720284 -2.0881091 3.9399414 -4.5943985 4.0070714 4.4197258 -3.9652769 0.8387047 -4.4445822 -1.6797871 4.7746978 -0.1962496 -2.4006574 3.9776684 -3.9552580 4.4782178 -2.7605417 1.3899249 5.0369150 4.4886486 0.7168652 -0.4386256 4.2598221 -3.4817343 4.5134769 -4.4351095 1.3442308 4.5404155 1.8769925 0.5393935 3.3516907 -4.5171353 -0.3528729 -4.5785238 -0.7307183 1.5200794 -0.6105291 2.4189939 4.5433012 -0.1518300 -2.1571054 4.8996468 2.3708742 3.1316543 3.2549157 -0.7916865 3.9627367 4.7276598 3.2994136 4.9200151 1.2550681 2.4805388 1.4849727 3.3968906 4.7960145 2.4150213 -0.9512164 2.5444985 0.8191595 1.1919834 3.6017796 -2.3689119 3.5642035 5.2333233 -3.7418318 2.4458602 -3.5690874 -2.8861481 -3.3831807 3.9234216 4.3557359 2.4566835 -1.8556046 2.6663959 0.4711300 -3.5582105 3.5827321 -3.7920614 1.4653128 -0.4357136 -0.0142290 2.2238526 0.8002184 0.9632982 1.0856803 3.7854531 2.6855036 -4.3571189 -4.5633557 3.8937962 -3.5060102 4.9608597 5.5259066 -3.0823435 -4.3796079 -1.6570816 -2.8561755 -0.7186949 2.3907486 1.4312679 3.5443788 -1.1787058 -3.2129946 0.0034476 -2.1944737 0.3256543 1.9733731 0.5179243 0.6102629 -3.6797192 -3.1771731 -4.8939266 -3.4721151 4.6068405 1.3614140 -0.8628151 -2.7900726 2.9182847 -2.1934654 -2.7812521 0.1421684 -1.7350917 -1.4342438 3.6180090 4.6646558 2.5866438 3.6263514 4.1212997 0.8427767 1.1028769 1.4367467 3.7751941 3.2465043 1.4513070 -2.0304842 1.2905213 2.0400748 3.0795001 0.1885457 -1.4258093 0.7936369 -4.0164126 -0.8974517 -3.8855979 1.0484240 -0.5738099 0.3772028 -1.2712900 4.5075593 0.6663041 -0.9273227 3.2223939 -2.4204214 3.2837111 -2.7155487 3.2782080 -1.6601073 -3.7665138 -1.2095118 -3.7529322 4.4789315 4.4055205 -0.6442248 2.1529816 0.3724780 -3.7169988 1.5234695 2.2550071
interviews 2.8878585 -2.5546555 2.8344876 -4.9970085 3.6743903 0.9788490 -4.0991435 1.5968622 -0.0184076 1.7324781 1.9676132 0.5510350 -1.3903559 3.8674829 3.3495344 -3.2330729 2.0990546 -5.1170017 2.5898625 0.2686293 -1.7977226 -2.1818999 -1.7204217 -1.1834673 -3.6961315 1.7140067 -2.5494397 4.8063974 -1.8691029 1.9652609 -1.9519885 -1.3209029 4.1268092 2.1211170 3.3353442 1.4225767 -0.6861743 2.6937708 0.0279500 4.3919233 2.6654176 -3.1015810 -4.4211790 -1.1074473 3.9687850 3.6591181 -0.9293338 -2.5351251 -2.3549460 2.4412411 -3.7014142 -1.9506940 -1.7456453 -4.5404300 -2.5827544 -3.6821696 -2.3988262 -2.9633846 4.7999025 2.2043371 -0.4784019 1.5603016 3.3670976 -4.7841843 0.9776352 -3.4177414 -5.0834984 -3.6050680 -1.4274501 0.9706674 -2.3476678 -3.6685234 -0.0845026 2.2011487 1.6059292 -1.4315091 2.9980375 -3.1898353 -3.8855652 -4.9186329 1.3467987 -1.0116302 -2.7261198 2.2337938 -1.2531029 4.9732871 -4.2930426 -2.1104897 -4.6725018 0.3958647 -4.9081531 4.8378169 0.2601015 0.5322767 3.5467426 -0.6043158 2.4401690 4.9014336 -2.8186122 0.7990097 -4.9080955 1.8506572 -4.0051646 3.0277888 0.9791363 -4.5286488 2.9840921 0.9781062 4.7837220 0.0119862 0.9175949 0.8401709 -4.1240998 -0.2687314 -2.1199963 2.4092238 -2.0308387 3.4174138 1.1999209 4.4897390 0.5041653 3.4881551 0.1955971 -3.5438098 1.3176354 -3.5796973 -0.8494417 -2.3261651 -1.2512391 4.7072104 3.0129517 4.2446117 -1.0191652 4.4363948 -1.3482297 0.0482249 1.3829829 -3.8989322 -2.1666518 -1.0265709 -1.2231456 -5.2375264 -3.1649877 0.4349181 -0.6571231 0.1574007 -2.2709617 -2.8709520 -2.3562901 -0.9449632 -2.9223618 3.8265398 0.0778000 2.9847390 3.3833656 4.2569111 -2.1066014 2.2260122 -4.6709069 -3.9393835 4.7566027 0.1381818 -0.8848989 -2.2593553 4.8143283 1.9389292 -0.4287873 4.2935073 -3.1586853 1.9300158 5.1195396 -2.7361128 5.1218999 -0.8302861 3.7647403 0.7556982 -4.3458287 -4.7151884 -3.7865629 -2.9704192 3.3384803 0.8915511 1.6264887 -0.3112455 -2.7241968 -1.9576172 4.7478481 -0.4355270 -0.9558361 -1.6608406 -3.8202341 0.8461422 -2.3363878 -3.8341741 -1.8447887 4.9507291 -4.1381112 -4.2661895 0.9399700 0.5115343 -0.6642090 -1.9060509 -4.0114931 -3.3879266 3.5442172 1.7155796 4.7285446 -3.9510939 -2.8974484 3.2488795 -4.0804006 4.1107048 -2.4261955 3.1344175 1.7508495 -3.8408122 1.8346748 3.1658363 -0.5516158 1.3880811 -1.9867119 4.4410542 -4.9204642 -3.7679889 3.4366778 -2.2337532 -4.7515155 5.0326067 -2.1063544 0.8595695 -0.9452975 -0.2594980 -4.4605167 1.7555298 -2.8287763 2.1492994 3.1961449 -3.6068312 -3.7096989 1.5135953 2.6849464 2.3040717 -5.2573876 -2.5255838 -4.6782474 -3.4907874 4.7759933 -4.9349471 -0.9439590 2.4731127 -1.0667472 0.3095902 0.0084440 0.8499025 -3.5970804 0.7126475 4.5397604 -4.6993418 3.0701496 0.9995113 1.1425327 -1.5158470 0.3183217 3.0606940 -0.6763909 2.6494880 -0.4103065 0.2549885 -1.2315675 3.1393658 4.6689624 0.8615540 -1.2997399 3.2384095 -3.8573864 3.1986403 -0.5495212 3.5645906 -4.5287468 2.4438480 0.8783550 -1.4826949 3.0711895 1.3496539 3.1341166 2.9874592 -3.1726131 0.7535199 -2.0092035 -3.5663609 -4.8104261 -2.1745722 -1.3064810 -1.4651185 -3.2662004 2.2059950 2.7064471 -1.1416254 2.1113708 3.5791232
carries 2.3247725 -3.7917052 0.1910985 -3.7178545 -0.6426934 1.8534177 -4.1956137 -1.5845735 -0.7784578 1.7282240 5.0960782 -1.9930036 -2.6196826 -4.4205631 0.3090420 -1.0672344 -4.5646413 -2.8845240 0.1782792 3.5724300 3.8089136 1.2643158 -3.4988025 -1.8320410 1.8733371 -3.9701028 1.4403591 -1.7072378 -3.7313666 3.5345582 -4.8699841 0.6447317 -0.9291149 -4.0993351 1.8014506 -1.1688429 2.2714408 4.6483183 -0.7673705 2.6913941 0.8988547 -4.4399552 1.7243245 -4.2697148 3.7379253 -4.3590405 1.3326713 3.7812360 -1.6601475 -3.0355850 3.5702289 4.8463954 0.2940594 -4.9469800 -2.4277752 -0.2763641 -1.2103192 -1.3355369 -4.4291825 2.0786044 0.2777765 1.1325517 4.4254378 -4.8119912 -2.9154754 3.9277457 1.0204345 0.4795422 3.0615480 -2.0815938 -1.4417966 -2.7762054 0.1255448 2.4160198 -4.5181361 -3.5967555 3.6918652 3.7430650 0.9148096 4.5477996 -3.8829537 1.5191393 -2.6421917 -1.2867147 -0.4795239 4.2574612 -3.9295179 -4.8183457 -0.3942708 -1.9893934 -3.4317678 1.6671684 1.0148031 -0.4283830 -2.9914584 2.3081373 4.8022941 -4.3839125 -4.5678048 -3.3106300 0.3975483 2.1561909 0.2551048 -2.9227352 -5.3932036 -3.4532073 0.5424865 1.9144623 -1.8226968 1.6165575 2.5972224 -2.2320579 -1.6336966 2.2035094 5.0564336 2.5975893 4.7553345 -2.5365112 -4.3607977 0.3546028 -3.2006917 -3.6409460 3.8574444 -1.9217947 4.0849213 0.9004752 -3.0955268 -3.4027558 -0.6510503 -4.0836318 -1.0301696 3.5379801 3.1474559 0.5460766 -3.9141956 2.0038834 -0.4521209 -1.5105956 -2.8959178 0.8702419 -0.3896136 -2.9238182 -3.4895963 -5.0458524 5.2284190 1.1388305 0.3872082 0.9294812 -1.9167561 -4.0254985 -1.0485808 -1.6931029 0.7585530 -4.5031098 -4.6372265 -1.8916339 3.5119840 2.5063013 -1.5642612 -0.8680430 -3.9220103 -4.2880899 -0.2998906 -1.6967055 1.4585615 4.3625496 -2.2471699 -0.1151515 -1.0559612 -1.8072015 -4.0110893 1.5170798 3.2352552 3.0758264 0.7814309 0.4118324 -2.9093383 1.4871688 0.6826990 -4.6577807 2.6967633 4.3425522 3.2655887 2.5255292 0.8698734 -3.6927171 1.1604917 1.9565571 0.1371675 3.6069185 0.5717394 3.7363018 2.0649779 -2.0413493 4.0078720 5.2235460 2.5108418 -1.8972640 -0.5233981 1.6683937 -1.9575362 -1.2792619 -3.1488621 -0.0291198 4.8847245 -0.1022008 2.3410271 -4.4550924 -0.6912136 -3.7136845 4.2743951 -2.3848194 -2.1465815 -0.6365460 -4.2890685 -3.4317427 -2.5449476 1.1014556 4.1334101 2.4579345 3.1418199 -0.7236351 -3.1891692 -4.0336454 -0.9905728 1.5645039 0.7947521 0.5664564 -2.9939659 1.7187217 0.8377513 -2.5219017 -2.7304572 0.0472290 0.6074232 2.8457879 -0.8792540 -1.0708819 -1.6235996 -3.1069050 2.3961908 0.5962066 0.5404964 3.7693035 -2.8871778 -3.5312976 0.0517415 -3.2328230 0.6261806 4.3568206 -0.6322047 1.3624758 4.4300435 -1.6091588 -2.9841921 -1.2113590 -3.8912539 4.4652609 4.7492770 -0.9855044 0.2341312 -5.1458638 -2.5958635 0.7587091 0.7590486 -1.7743486 3.2618007 4.6662502 4.6350116 -4.2205553 -3.7428008 -3.1695965 0.3045733 1.2163874 3.5041403 4.1552179 2.1791636 1.3340433 -3.7916290 -2.1474022 1.7873844 4.9583248 -4.0614738 -0.6151987 -2.0733986 -3.4944611 -2.6034263 -1.2694575 3.4392150 3.6153598 -3.6314522 -2.9138309 1.8769608 4.3399615 4.2272341 -0.7549987 0.1858574 2.2485314 -2.0413573 0.4424676
store 2.4773680 2.3090623 -4.2917947 0.1979543 2.4828296 0.8822731 -3.8449030 -1.2555012 2.3975235 2.9989414 2.3911052 2.6251677 3.5728372 -1.4018900 -4.2818808 -0.9577390 3.5438643 0.6030305 3.5012275 4.1123942 3.8494799 0.9487493 1.9392608 3.5725458 0.5144370 3.7079719 0.7268539 0.0334773 0.5736761 -2.7485705 0.7299862 -1.7972275 -0.7203259 3.9964455 -1.5032370 2.6837377 -3.9105104 1.5287745 -0.2920795 -0.5175733 4.4270123 -3.4148270 3.5635552 -3.7360267 -1.9547250 3.9786967 4.7324748 2.0054304 1.1580530 -2.9683329 -4.5787443 0.2452280 1.3675284 -2.5514490 0.6021799 1.7949204 1.1995306 -0.3874885 -2.4001676 2.2117993 3.3134757 1.4645412 3.5565765 0.3430701 2.9502541 2.4168551 -4.4576091 3.8688190 -0.0673947 0.0085297 3.9239201 -1.0565980 3.1269228 4.9186387 3.3632805 1.5289184 0.4573571 5.0127282 0.1146303 0.7653540 -3.0317688 2.5960146 2.4456359 3.8769315 -0.5172518 4.8932536 -3.8084219 0.2905258 -2.0382369 -1.8443137 1.0404961 -2.4078373 -3.3183120 0.1385043 0.2105570 -2.9256835 -2.7336525 -2.4589548 -1.2099049 -2.4967788 -2.2595905 -1.4704140 -0.8625404 -5.1200853 1.4078708 1.1103627 1.4409252 -2.5478959 -3.3932979 1.0382976 4.1837931 -3.6811264 0.9162176 -1.4037203 1.0074092 3.9787010 2.2059924 2.4486987 -4.1012046 0.4647588 -5.3121746 -0.2321806 -1.3900149 -1.9900591 -1.2484932 3.0400283 -0.8565969 -0.3379835 2.3659160 3.9000273 -0.7804557 -1.4718967 -0.1900695 -4.7296403 0.3140680 -4.9245618 -3.0106231 1.9311666 -3.1678242 -3.7065308 4.1042205 -4.0220407 -3.7067038 -5.0389591 1.9663804 3.9117759 -3.2457441 2.6930389 -0.3872841 4.1206427 1.9148350 1.7727546 -4.3214661 1.6469392 -0.4683956 -2.1471033 1.3153754 -3.1999588 -2.0352080 -1.3161055 1.9805272 0.3935784 3.2879514 3.3244267 2.6477241 4.2965193 -1.5267089 -3.1032975 3.1833977 4.1185006 0.6071395 -4.6759739 5.1989749 3.2253175 -0.1700350 1.6399794 0.4368162 -4.1495322 3.6691015 2.0554468 -4.7233453 3.4867455 -2.3441564 2.8406706 0.9570359 -1.2300498 -1.8380379 -1.5909167 -4.1523897 3.3427886 -0.1666138 -1.5024322 -2.4471389 1.3855187 -3.6320066 -0.3975948 -1.7094634 -2.4974719 2.3329582 -2.7840267 4.5542637 0.9284546 -3.8697175 -4.5591044 -3.1187483 -4.1629254 0.0553338 3.2289304 1.2746515 1.4714975 4.5349722 1.3005461 -0.7479287 -3.8650423 -0.3857136 2.1099946 -0.4617888 -0.1810944 -3.4865674 5.3669839 -3.7147690 2.0612431 -3.5931542 2.5673579 -3.1635262 -0.0557484 -2.8716214 0.6019936 -2.9335737 1.6015390 1.3128425 3.6970132 2.5391341 -2.4798346 -4.2730086 -2.8972101 5.5734314 -4.3637930 3.4339847 -0.9609223 3.4177988 -2.6815945 -1.3848160 1.4016880 -3.2836750 -0.5859195 3.7322428 4.7549108 -2.1396146 -2.5008193 2.0531711 1.6805207 2.9958870 -0.2058760 2.2171422 -0.8532564 -1.6285999 4.0010493 -1.9213833 -4.8660066 3.0658839 -1.3861287 -3.8651068 2.6511210 0.3028085 -4.8756816 1.2509065 -3.3401925 -3.6403884 -4.1340203 -0.7811564 -4.7883674 -1.5320550 0.7448937 3.9613222 1.1449545 -0.2547857 1.6418495 -1.4918946 0.4546606 1.1328649 -3.4852129 2.7227220 -4.1744752 1.6621971 -3.0744677 0.8550617 -0.5296865 -3.8081392 2.4091783 -3.2300671 4.4696526 -4.3418794 2.9623937 4.6342835 0.8279352 0.0061761 3.5717835 3.9010236 -0.1543589
theirs 4.4202392 -3.9851391 4.4569785 -4.7001546 0.2610931 3.2396322 -3.1112231 -4.0591476 4.1345427 -1.8983228 -3.4426719 -5.3177224 2.0174497 -4.3562659 -4.2439590 -4.1215907 4.7382416 -3.6644846 1.5907090 -0.1098992 4.6837472 1.1245815 -4.4518270 0.7030311 1.3474582 -0.7169017 -1.8903569 0.3844096 2.0751929 1.4585193 0.3537952 0.0347626 2.6948724 -1.6795322 -4.7817813 3.7851905 3.3236546 -1.3145903 1.4521041 4.4406860 3.4088233 -0.7108215 -0.8267053 3.4122661 3.7957318 -0.9804453 -0.7962998 -1.0128482 0.0996699 1.5501453 1.6712883 0.2153826 -5.2379416 0.4885855 1.8988803 -1.5292858 -0.4052749 -0.3128348 3.5470440 3.0743178 3.1052379 4.5496156 1.1281180 -2.4706031 -3.6129604 -0.5006088 1.4533837 -0.4045705 -1.0215712 -2.3938431 -3.8182995 1.3574124 -3.2289322 -4.4038612 -0.8773775 -2.2058651 3.0281902 3.8740476 -3.7779479 -1.7676573 1.9569706 4.5930932 2.4947154 -0.1711423 -3.7626412 -4.5579452 -3.1193506 -0.5059181 -1.2378473 0.5526764 -0.4859471 3.5595475 -4.3999821 0.3070114 0.5319809 -4.4789199 3.5294515 -3.5703150 -3.4665669 1.9814719 -4.7571146 4.1552452 -1.4912071 -1.8869062 -4.6503909 3.8491776 -4.0009594 0.1914539 -3.1149448 0.3880464 2.3314837 -3.8158599 -2.1997709 1.6401031 1.0842931 -0.2686272 1.6160700 -1.0771179 -1.6642871 4.1940772 -2.5953316 2.3540071 3.9447765 -4.4745735 -3.5220657 -1.7184725 -0.8874643 -2.1765136 2.9173992 4.0935326 1.7605833 -0.7448600 3.9897766 -0.4043373 -3.1583572 -2.9024012 4.8097803 2.4106199 3.7643315 -1.6608994 -2.9051060 0.2403644 -0.0471360 0.0647895 -1.6107010 -1.1852071 -4.7002295 3.6036466 -0.2021159 0.9963573 -3.4428177 -0.2825773 -3.9712613 -3.2180434 3.8269368 -1.7236860 -2.9822036 0.6795917 1.9170745 -3.3167586 3.0546200 0.3878439 -4.2204283 4.2503064 2.8217152 3.0353873 -1.5882032 4.1317803 2.5384936 -2.9356173 5.1020741 -3.3570896 -3.9979624 0.5611299 3.0403744 2.8631796 -4.4961488 -1.3819389 3.9225359 1.5328017 -4.4406415 0.4789781 -4.8421623 2.2763717 4.7171865 -0.5651194 1.5626975 3.6099870 -4.3549015 4.8884902 -1.3336855 2.9903142 -1.4638958 -0.8566205 2.6712081 -0.4348005 -3.0907003 0.4964394 -4.6462631 0.7311952 -0.8844922 -4.4034317 3.3966371 1.4828199 2.4179234 0.9801799 -4.3049634 -4.0256578 -3.0290984 -5.0416141 -1.3173406 3.5654699 -0.7076935 -0.2347978 1.3716898 -3.4026090 0.6131249 -2.3400824 -4.5728350 4.8503366 -4.4762835 -3.1193225 -0.6051084 2.2690382 3.6204947 4.5654400 1.9688981 4.7208350 4.0229088 -4.9663369 -2.7965332 4.3463205 1.9748132 2.8412059 1.7303828 2.7280432 2.0730350 -1.1815596 -4.5700488 2.5963448 -3.9345139 -4.3888789 2.3167845 0.6140509 4.6268544 -1.5054309 -0.8490625 -0.8328011 1.0439763 0.1764629 -2.7968682 -0.9548013 -0.3688400 2.6717614 -4.3718218 4.3014921 -1.3845236 -4.8214833 4.4720306 -1.2325201 1.2988644 4.1617025 -1.6900528 4.0326573 1.3638801 -2.4404769 -0.5355605 -0.8277034 -2.8987188 -1.4293546 4.8773447 -2.4907599 -4.0479744 2.2689452 -0.5838045 -0.6063515 -2.9978389 3.2723380 3.7586036 -0.5091481 -4.4383584 4.6326908 3.4072198 -3.7389782 -0.6477356 3.1654267 -4.1306625 4.4435572 -0.3289410 2.3348477 -0.4732171 3.7213275 1.1125225 -2.4919945 2.3142250 -1.8159805 3.0559537 0.0831566 -4.0892123 2.9069875
readable -3.8105469 -0.5608670 -4.1515073 -2.4696210 -4.5758426 4.0696528 -0.4491461 1.2106957 -1.8960684 3.0528212 0.7768370 -5.0069925 0.3616654 -3.6708388 -0.6051088 3.8777020 0.3260793 -4.7419953 -4.8734000 -0.2376686 1.4955425 -3.2463980 -1.8240718 -2.6473855 5.2452480 0.0818673 2.8779470 -1.4222605 -1.2103979 -2.7961831 -2.4909316 4.9360054 -1.6737255 -3.7246933 -2.6984649 3.5583458 4.9098699 3.3196440 0.0063563 1.2187902 -3.4347749 3.0808098 0.5248618 2.1220987 2.0251764 2.4509168 -3.3474955 2.4317126 3.9840237 -1.3150149 0.8806080 -0.2829825 4.4692226 -4.6117268 -0.0057339 -3.7886822 0.5907267 -3.4470681 2.0828785 2.1164483 4.1105840 0.4477651 2.2990762 -2.4472995 -2.8511378 -1.3943446 3.3177796 -3.1124211 0.2970428 1.4436389 3.4257214 4.1071310 0.9763612 1.6596336 -2.0147579 3.9085110 -1.5832924 -3.8148009 4.0122751 -3.1197583 -0.0672301 -0.5321202 -4.2102940 -2.4652096 -3.3699630 4.1152083 2.4611374 3.2396205 -3.8908195 -0.5188522 -2.6270387 1.1894882 1.6052331 -1.1229250 1.1893718 -3.5513631 -5.0489435 0.2519634 -2.3481568 1.2145485 -2.8865292 0.2756823 0.1186324 2.5448660 1.7153761 1.3398024 -1.7907881 2.5176576 3.2083641 -0.8912030 5.1918611 -2.9033213 1.5799441 0.0461786 1.1017563 -1.5351490 -1.2512932 3.6376966 0.0447025 3.9428051 -2.0416165 5.0682692 0.0636567 2.2413815 -2.9539387 2.0610852 1.3082464 2.2219931 -0.8755900 1.4538843 3.6936643 -1.3631993 3.1238056 -2.3732551 -4.3602076 -1.5941431 2.8895039 1.5814982 4.9198396 -4.4124267 2.2928330 1.6360380 0.9197777 4.2000911 3.4729222 2.7326508 4.8371250 -0.7707682 -2.4602853 -4.7104082 0.7287345 -1.2389227 -5.0911252 0.3430163 3.3665147 4.2461109 1.9268182 3.4112843 3.4589224 -2.2467717 4.0070778 3.7610182 -1.4020205 -1.6289889 4.1231723 -4.0435966 3.9540968 3.9849315 -3.4887521 3.1912352 -1.6364594 -4.0672435 -4.1000171 0.8387642 -2.4173971 2.9854759 -2.2241631 -4.7528921 4.3708523 1.4153454 1.8700350 0.1801995 -4.7316238 -3.6050679 -3.1402700 1.3502498 -3.1692290 0.6951625 1.8123082 0.0371642 -4.3381795 -3.6101470 2.7979422 3.5357886 -4.1124150 -4.3283559 1.7025141 0.8961901 3.6555183 -3.1919169 -0.6172120 2.7787797 -5.1333022 3.4889565 -3.2842771 4.4824330 0.6642714 -4.3590617 1.0376452 -3.3718792 -0.0204972 0.0222738 -2.1960307 2.2334056 -3.8654558 1.2402680 -4.6229769 -2.6723580 3.9514176 3.8378456 -4.8040135 0.9274501 -1.3486312 2.8827796 -4.0251660 -3.3646624 -0.8616420 2.9356903 -1.3685764 -0.0202012 -2.3733521 4.6331122 -2.4574128 1.5128644 -1.0153848 -3.7027433 4.5304186 -4.3142563 -0.3538033 3.1779407 2.0247915 4.2568530 2.5365809 -4.9373725 -3.7015826 -3.4990042 4.3313885 -1.0451962 -3.8045723 0.0216689 -1.0244379 -2.1952666 5.1902625 0.3685504 1.0825117 2.6770890 -1.4365480 -2.3523351 2.3848394 2.3840454 1.2515832 3.5995691 2.0313058 2.3962644 2.4419179 -4.9953246 5.0444208 -0.1203477 -2.0771813 0.3446168 -3.5498769 0.4313433 1.3487559 4.3505134 -1.6933260 -4.6075468 5.1854963 -3.0748197 -4.1212820 1.5675007 3.6852004 -1.2262043 1.6037093 4.8449979 4.6240953 2.4678014 0.0829567 2.0821963 -4.2464621 3.8580645 -4.0661120 -1.6090963 3.7836348 -4.2779756 2.0172500 2.6346022 3.6322013 -1.6890836 3.7051969 2.0416080
Difficult -3.6261075 -1.0806877 -3.8025089 -3.3153206 -0.8126098 -1.2651149 -3.4611998 2.8362459 4.6487012 1.0426237 0.5967197 -0.2930343 2.8263031 3.9256025 -1.3651204 -3.8034997 0.5459272 -4.9589696 -5.0618016 -0.1287266 -4.2213498 -1.0628841 -3.0260465 -0.9184893 -1.1158990 3.8768880 3.1306391 3.8343724 -1.8662331 -1.2453880 -5.0141446 -1.6182681 4.1711418 0.5055622 2.6684013 -3.2028622 2.0985763 2.6508158 -3.9437140 4.0916238 0.4500125 0.0237928 -2.6980405 -2.8673403 3.9065289 4.7658577 -3.3854646 -3.3360545 -1.1728158 2.2876136 -1.4410344 -2.3032634 -2.2077157 0.3746300 1.8536513 -3.2370240 -2.7518106 1.5303886 4.7963022 -3.6891868 -1.3875802 3.2171212 -0.5121446 -3.5487032 -2.2663958 -3.1510913 2.6256860 1.4283932 0.0057456 -4.1037649 -2.1716594 5.0069622 -3.3115954 1.4751214 3.7379710 2.0690785 0.6313414 -1.5812118 -2.9793739 -3.9941116 3.8612613 4.7185243 0.3340004 1.9115463 -3.9468423 2.4143047 2.3568259 -3.4144282 2.0423266 -4.8367649 -1.2360840 2.1113181 2.6827109 3.6181340 -2.3358198 3.6197436 -4.2788421 1.1345747 4.0835264 4.3824327 -0.9492240 2.8813550 -1.8716416 -4.1257861 -4.4292209 -4.4392284 -0.2923799 -1.9475765 2.2614235 0.1159852 -3.0878990 4.0205518 -1.9621575 -3.1927606 -3.4251797 -2.5931354 -4.1204084 -4.4432332 -2.4655558 3.5623630 -2.0703936 1.9876214 -2.1837395 2.8034439 -1.0260971 4.0269512 -1.4590008 4.0442888 -1.3263987 -1.0529768 3.0967647 2.1390858 -4.8442031 -3.3531031 0.0569068 4.5014998 2.0198884 -3.1852443 -4.0940200 -4.9413279 -1.3506590 -5.0457870 -4.6624419 0.1075253 3.7734134 3.1471381 -4.8120288 -2.2720670 4.2448086 -3.0025174 -3.9005664 -0.3670806 -1.5614214 1.4449718 -4.3612983 0.3550015 4.4777629 -1.8854398 2.7865433 3.4421430 -1.6872552 4.2955670 0.0271259 -4.7609920 -2.0941152 -2.2522794 -4.1447748 -2.1992005 3.3172677 4.6230602 -2.9228659 3.5229133 -1.9120063 4.9992503 4.8049351 3.0011627 2.4514181 4.1711799 4.6988451 -1.0458035 -4.0209244 -1.3239829 0.5100347 1.2910558 0.1813712 -2.5242730 -1.2709303 0.3040455 -0.0006441 -1.5090723 2.6153224 -1.3724873 -3.8946482 -2.9775702 -2.1678943 2.1490766 -2.3263636 -2.2553287 -1.7963295 3.0762488 -4.3572934 4.1600824 1.7396952 3.5298991 1.3159652 -1.2630227 -2.7699497 0.9972350 3.5306906 -1.3370999 4.9731298 4.6004887 -2.8287144 -3.0504896 -3.0177765 -2.3137500 4.9348096 0.7743618 -2.5360244 3.7566652 -4.8819707 2.2968076 -2.2911727 -1.5377466 0.6278753 2.7967380 -3.5892362 -2.1842725 -0.0720126 0.5595748 4.6752839 -2.1399069 4.7887483 1.9402068 -2.6520353 3.3759519 1.9054637 -0.2804542 -2.9919065 -1.9189533 -2.5248665 4.2614723 -2.9426598 -1.0245846 1.4535098 3.5395526 -5.0100271 1.5846880 3.6306757 -2.8009440 -3.8092420 -3.6025980 4.4615911 -3.6394521 -1.5353592 -1.1152344 1.0866951 -0.9831384 -2.5560529 -4.5479097 3.4011058 1.1300797 1.3108734 3.8230194 0.6082052 -2.4139624 0.9559519 2.1172665 2.4450370 1.7667632 4.8397125 -5.0427419 2.5597405 -2.1372022 -4.4675064 1.9013103 -2.3835783 4.0889970 -3.1421478 -1.1501413 3.7584411 3.0486623 1.7976742 4.1622661 -3.7143380 -3.6152089 -4.5972841 -3.4319640 -0.3994492 -2.6043869 -1.2729920 -2.3190626 1.8888970 -4.8645573 4.8505130 -1.1906691 3.4462888 -1.2545164 -1.7896270 3.4150185
enhanced -0.0796130 -0.9603808 -4.5383967 -1.3226183 -2.5642444 1.7206085 -2.8935371 0.1343813 1.1443629 -1.4223837 -2.5222253 2.6653781 0.1591285 2.2546104 -2.8570268 -5.0014680 2.9116389 4.1611475 -0.8256331 0.3722186 -0.2031248 -0.4443453 0.4276757 5.0740302 0.7231483 -0.5136865 3.1353133 -3.3559869 0.9258234 -0.6249612 3.6776605 -0.9921071 -4.6353059 2.3402276 3.7256470 -3.1281430 -4.4332767 3.2532421 3.8232206 0.5328232 -3.8365739 -3.0907706 -1.5158312 4.3451434 1.3787987 -0.5179492 -4.3704957 -3.5715732 -2.4692412 -3.0808324 0.2889868 -1.4344690 -1.4501165 -3.3808907 3.5539404 -4.2701740 2.5963815 5.0136746 -3.8968742 3.6436607 -0.2476175 1.9338115 3.3230873 -3.6673855 1.2227944 -4.8305511 -2.7640562 -2.6404034 2.4544049 -1.1864270 4.0052502 -2.5888104 -1.0070284 2.0959804 1.6356998 -1.1936502 -4.3531049 3.0719839 -2.3464384 0.9853157 4.4408790 -3.3797931 -3.7992948 3.3074090 -4.3649833 -4.2093854 -2.9252972 -4.2110552 -4.4030657 0.1200721 2.4379046 -0.5125833 0.1265061 0.8653033 -0.9347591 -2.9150744 -3.9126309 -3.8798756 4.5291951 3.1766973 -0.9371930 1.7183576 0.9074151 2.8994075 -2.8824614 2.9188259 -3.0289508 -2.3764816 4.3286219 -2.7185345 1.2416965 -0.0438500 3.8382961 -0.8099982 -2.2204339 -3.3251868 2.4307398 -1.6505825 0.4749192 -0.6260372 -2.7402768 4.0356172 3.2890162 -4.3647057 3.9824803 -1.6181899 -0.1848680 0.4321526 4.6493168 -1.6381697 -3.4952506 -3.5800859 1.5396559 0.4601404 3.6290999 -3.0116140 3.8987891 1.4738896 4.1465276 -1.3381615 3.1216491 1.8763889 0.5155443 -2.9112388 2.5770243 1.1155130 0.2038775 -2.2558595 -3.9148449 -3.3762506 3.6339815 0.7560034 -3.6069293 4.8861344 -0.5590274 1.0835885 -3.0380582 4.4133914 -3.5052330 4.2037698 -2.4151699 2.8253252 3.5665791 -0.5329821 4.4553322 -0.7825405 1.2216286 -2.2948058 4.0310594 4.6099871 0.9863971 3.8787585 -2.5698348 3.3494706 2.4745082 4.7794697 5.0121293 0.9890272 4.4029219 -0.2172178 -1.0748605 3.5719066 -2.4233669 0.5199210 -1.7835330 3.7216345 -2.0562914 3.0877143 4.9894106 -2.8387397 1.6952691 -5.0832340 1.6472226 -3.5754400 -3.2919576 -1.4129237 4.0995679 1.4086786 2.7218167 1.8056973 1.6832905 2.5004603 3.0603167 2.6848107 5.1081249 -3.9670280 -4.0074001 -0.0595118 2.0324576 -2.3976562 0.8202808 -2.4321805 2.4822693 3.2213618 3.2790664 -0.7761799 0.4917465 -2.9908491 -2.8413681 3.6285088 0.9345604 -3.4428564 1.2999056 -3.6716749 -3.8750218 3.6057553 0.1912761 3.8042101 0.1260515 4.1612087 2.6753778 -1.8023417 3.4004066 0.6629712 3.7344245 -3.8361183 1.3701039 -1.2749115 -0.3395222 -0.0467955 2.6630065 -1.4103542 -3.5024290 -1.7176035 -4.1622036 -3.7010347 -1.6121674 3.7432228 -0.8878502 0.0111315 3.0002479 2.1914249 2.3479853 3.5379184 1.5002397 -0.4105957 -4.0162243 -2.8326328 -0.5923928 -4.1479709 -1.4686391 3.3715571 2.6273747 -4.3653927 3.9850623 1.8549342 2.2505941 -1.6834574 1.6871085 -1.7400738 -4.1799095 -5.2742308 0.5912660 1.5907405 3.7604050 1.0180934 2.2513644 -5.3828028 0.6116783 -5.1718259 -4.0455199 4.7356664 -1.3940823 0.1216770 1.2593750 0.5545013 4.1999846 -0.4669529 1.0875380 -4.2810984 2.2619278 3.3507202 0.0572502 -3.2997609 1.0090115 0.8994822 4.1527577 2.9979136 -2.9330347 0.6819370
phonemic 2.5710106 -3.2791582 0.4157621 -0.7604469 3.5854504 0.8897924 -4.4632748 -0.0258534 3.5916968 -0.4254511 4.1987036 -0.1162192 -0.1198659 -1.3250796 1.1375311 -3.1810285 2.1677110 -4.1188014 0.0170076 4.0144058 4.8832712 -1.8050659 -2.9248104 -3.0556949 0.3507201 -3.3119741 2.2226788 -4.1469234 -3.6838260 5.0764706 3.7019248 -3.3724795 5.0897665 1.7010388 2.1969943 1.7195197 -2.1797511 1.6230312 -4.3275185 -2.6544549 -1.8130707 -3.7155037 0.0295487 -3.6369574 5.0127708 2.6659775 0.3601616 3.3614565 -0.5026323 0.3379983 1.4450534 -2.6001026 1.3882919 2.0343431 -4.5244117 1.9283130 0.2299269 1.9394130 4.3765278 -3.8689385 -1.9435617 1.4261293 -1.8255241 3.6401615 -4.5322105 -5.0246240 4.2346541 0.8697478 -0.4439774 -0.0135783 4.1392514 4.1866673 -3.8693107 -0.7366002 -0.5380666 -0.7617795 3.6928935 -1.2424064 4.4316694 4.6445335 -2.3451209 -2.3814565 3.8642693 -2.1399186 2.6919603 2.0427522 1.7464958 -3.1442379 -3.1785526 2.9062282 1.3091537 0.4652866 3.5744507 -1.6103433 -0.8768988 -3.6008590 4.8032624 0.7308239 1.7095262 -1.3748247 -4.2538945 -3.3508168 2.6631791 -3.4307829 4.2690603 -2.3729790 0.8142744 1.5281679 -0.4088677 2.3582482 2.3457308 1.3608175 0.6426816 0.0584696 2.5787415 0.9519480 2.9833230 1.8412558 -1.9536928 -0.4222247 0.7037778 0.2877124 3.5870761 -4.2051606 0.7987702 -0.1896447 -2.4226265 0.3702784 0.2423585 1.1792027 4.0039882 3.9620604 -0.1119749 -3.4571087 -4.0397053 0.1488749 -1.1199475 -1.5180165 -0.4749108 -2.7312904 -4.2689868 -0.7914175 2.2948097 -1.7743798 2.9747091 4.7007563 -4.1191021 -4.6947560 -1.1575796 -4.8364386 4.1966840 2.5268854 -0.6962971 -1.2470528 -1.3610025 -4.2914163 1.4511629 -2.8269810 -1.1935473 -1.6390072 -2.6060591 0.3570394 -0.8221020 -1.3450311 -0.4434751 -1.0204066 -5.6596711 1.3981287 -1.4569711 -4.2806214 1.3496823 3.0061339 0.5825657 0.5521348 -0.6339653 -2.9612520 -4.5780541 4.1105299 -2.7574311 2.2287522 1.8371301 3.4963529 1.4479699 -2.6660226 4.4778218 -0.9257475 4.3124792 0.7657304 4.1241761 4.2641478 0.9574238 -4.3638430 1.3794299 1.7452162 4.0516130 0.6843455 4.7447079 -4.4202922 1.7726894 -2.6232073 -1.8476567 -4.2915206 2.1653438 -3.5677858 2.7455378 -4.5304259 1.6516169 3.8684344 0.4857665 -3.1849996 0.5798614 1.5610121 -1.6926570 -4.3205145 -0.5128599 -2.9636095 -1.0000711 1.0148575 -3.8958519 3.4730177 -1.9056083 2.8630453 -1.1470376 -0.9215517 4.6210467 4.1914601 3.4252294 4.9555414 2.8054206 -1.1952605 -1.4470148 2.3561615 -3.1324948 2.4353525 0.3655240 -1.0620989 -3.9914471 -3.9771838 -1.0670964 -3.6632484 0.4259591 -0.9586894 3.5143771 1.3169471 0.0668025 3.5865222 3.2186603 4.0240757 1.7182948 -2.9999954 -3.8234341 1.7595940 -3.7926941 0.9059141 1.6634388 4.8196094 -0.5021933 -3.5975754 -3.2908609 3.5789603 5.2209332 3.6964706 -0.1425537 -0.1086296 -0.3654139 0.9810133 3.7932022 -3.4548469 -3.8812597 4.3913589 1.0510333 -1.0649193 -2.6020809 2.1395679 -0.5878963 0.5719158 5.0135368 0.9113957 -4.1962532 -1.8017925 -3.6290956 -3.5443619 -2.6121049 -4.2181873 -0.3770674 -1.2913346 -1.3937416 -0.8786911 -2.1331266 1.6700270 2.2068692 -2.7829345 -2.6138306 0.8708887 0.8892593 -3.5206639 -0.6386105 -0.9866286 -4.8703103 4.7507456
recursively -4.0865693 3.4506147 -0.3042113 0.8153645 -2.2305173 -3.6445478 -2.8725424 2.3496356 2.3410855 3.2937237 2.8091162 -2.5632792 1.4522919 -3.3993868 1.0930962 1.7903705 1.8134926 -3.1993981 0.1617409 -1.9011886 -2.2122249 0.3826305 3.6098608 -3.9272059 2.0231159 -0.9638843 2.8332026 -2.5987897 -4.4714306 3.2413976 -4.4701242 -2.1964831 3.5139619 3.9804184 -0.4115570 1.7971872 -1.4154162 5.7447880 2.6501754 5.2287647 2.7452382 3.1039834 -0.8775766 -5.1701947 5.3738824 0.8932528 -3.9180336 -1.5364232 -1.7414983 0.0897364 2.0459711 0.7014579 -1.6118519 -0.9757221 -4.7899103 0.0353107 -0.5293485 -1.1612931 3.7083780 4.2574450 1.2031684 -3.5390315 0.1279869 4.2199705 -1.9294879 -0.2568243 -1.1621501 -1.8083668 -5.5923917 -2.6644134 -2.2217405 -2.0065130 -4.5853863 -0.1958573 2.0868854 -3.6070965 -1.2039565 3.6854991 -3.2826881 1.1338387 0.4140178 -3.5091790 1.3748884 0.3597113 -3.5401255 1.0898951 -0.6504557 -0.0964501 0.6332813 3.1324407 -3.4474681 -1.7496612 -2.8225601 -2.5398588 -4.9373600 -0.3970322 -0.4289074 -2.6121232 0.0239940 -3.3218013 -1.1230100 0.0897930 -4.4793567 -3.8758924 1.7214738 -2.1946064 1.7359262 0.2002625 4.3055172 -4.7061904 4.7762763 1.5257354 -1.1208597 -4.6639197 4.8765167 1.6391678 -3.0020330 2.1009400 -0.0337924 2.6704707 3.5732965 1.9688196 1.5482556 -4.0954712 0.4890881 -1.0502648 -3.2348764 -4.4772173 -4.9380566 2.6842991 -0.2363536 1.7016441 2.3126517 -1.7758233 4.5184011 -2.7797471 -0.7183547 0.8856499 -1.0545615 2.9349599 1.4682749 0.8037347 -3.2097673 0.5438364 5.3590365 3.2592884 4.8098419 2.7771222 -1.7691057 -1.9027947 0.4342072 3.3795897 -3.4275941 4.0291055 2.3938806 -3.2791035 -3.6715905 0.3094976 -1.1014714 0.9416715 1.3952412 -2.3396761 3.6414191 4.5378412 0.2760267 -1.1064073 -1.0680063 3.9322471 2.6097763 5.2200551 1.8691016 -4.9377627 -2.7996943 1.0572024 1.0018221 4.3439792 -0.2850793 2.5385237 1.3826491 2.2792609 2.4126923 0.2569232 -3.7921691 4.0908249 3.5152884 -0.9762198 -1.5498942 -2.5124321 0.5909153 -0.6716156 -1.7107044 -4.0662647 -1.9619692 4.6753445 3.0668663 -3.8891277 2.3327734 -1.1916529 0.2632349 -1.8814879 -3.8818206 1.3344935 2.3238828 4.2428011 -1.9218283 0.6692467 2.4056754 -1.9058163 -2.7762808 -5.2235990 -0.0851417 -2.1082280 -1.2902229 3.4687263 -3.3969277 -4.8480924 0.0299917 1.6351167 -3.1293014 -1.6407209 4.7357471 4.0817349 2.2753839 -0.7932581 4.1739276 -0.8132737 -5.1110130 1.7404437 -2.3462707 3.2037225 3.2469279 5.0479293 0.3548003 -2.9234408 -0.1215577 -3.4069297 -1.9637198 3.8689327 -2.8925341 0.6280902 -3.7764501 4.4832461 2.2608227 4.4349135 -0.2375742 -2.9001341 -0.7643521 0.9310039 -4.6726973 0.2299647 0.6424740 -2.6317456 -2.1429615 1.9139342 4.0247829 -1.1934105 3.0282978 2.1456887 1.9961181 -2.6233716 -0.4210075 0.7682150 -1.2905646 1.3965410 0.5147256 0.3084955 4.2878780 -1.7768017 0.0024331 -1.1320210 0.1780826 0.4966541 -2.7828734 2.2091557 0.6704163 4.0810790 5.5952021 1.5934628 -2.4820093 2.4705867 -1.9217478 5.3164980 4.6017295 0.7808916 -1.2705098 -2.3447923 -1.3586097 3.6584836 -0.4687246 -1.2889459 -3.3607708 -2.2663937 -5.1799344 0.2576751 2.2583228 1.3659843 4.0145511 1.5547203 0.9964741 -1.5036229
subsets 4.6246653 4.0498376 1.0455355 -5.2570754 -2.6994597 -3.8485743 3.6753425 1.6881803 1.5333565 0.0549043 0.9559314 -1.7224914 2.3120009 -1.4058309 1.3632863 0.0744379 -0.0473109 2.1347416 1.5718401 2.3910853 -4.7387419 1.3121138 1.5846731 -3.5475001 4.5499030 -0.2487190 -0.6698054 2.2244974 -2.5066731 5.4271426 -0.1997880 -3.4052806 1.1491696 -2.1516334 2.6777482 -0.6981680 4.9931538 3.0949682 -1.1861838 -2.9340704 2.6368055 4.2191481 4.4719665 -0.4915488 -0.6692394 2.9004452 1.8529189 -2.7609821 -4.6925436 -3.8510621 2.2557080 -0.8106529 3.6402766 2.9761872 2.5571899 -2.0829013 3.0584510 -0.8970324 2.5140903 -2.9796048 -3.2807597 1.0428711 -0.7838748 -0.9071627 3.8082060 0.2474003 4.4824392 -0.9505305 2.9156376 2.0089785 4.8693653 -4.1108756 -0.4821210 0.4819828 -1.5365427 3.7408303 2.2613098 2.1256744 -1.5456214 -4.0823760 -3.4917015 -1.1490802 -3.2290696 -2.0082506 1.3158359 -2.6641251 -3.7997194 -0.0603203 4.1224825 -1.3241794 3.8421217 3.4971459 -3.1426819 0.6646384 -4.4109055 1.3619320 -2.3393302 0.6094417 2.7010733 0.9191442 -1.9858577 4.4713850 -2.4625863 0.3905552 -2.2322539 2.8091403 -2.2611304 1.5431062 4.7779016 -4.7595342 -0.8908168 3.8946583 -1.6474833 5.0743597 0.6555185 -4.4793441 4.6892015 1.0309904 2.9112646 -4.1973006 -2.5141532 -0.8310550 4.6711520 -3.9423919 -5.0562091 -4.3425316 1.8026391 -4.6710832 -1.4279458 3.8062406 -3.7017336 -1.6460272 -4.7394266 -0.4116879 -0.2884427 -3.5186730 0.2499580 3.8120631 -4.2718427 -2.5865538 -4.3676754 -1.0105901 -1.2815103 -4.9356822 0.8078044 2.0410225 5.1864752 2.9420654 3.8667660 1.9970833 4.7876364 0.1230373 -3.6875572 3.1754708 3.9014873 3.6549689 4.2984283 1.5798163 4.9389426 2.1339589 1.8460490 -0.8586199 2.5720288 2.8002672 3.1748407 3.7041200 -4.7663230 3.4729765 -3.9239073 0.7381394 0.7239113 4.1230183 3.6403119 3.3290225 3.8171747 3.8386517 -4.5414159 -2.3925287 0.3854976 -0.2774462 -0.0341007 -1.7894697 0.9703746 0.3236794 -4.6819969 -3.8344001 -3.0540549 -3.1798053 2.3395433 -1.4797303 -1.6416736 -2.4697143 3.7383044 -1.3298437 2.0524612 -0.2278078 -3.6351469 -1.8204065 -3.7606455 1.5749319 -2.6861950 4.6230614 4.1802069 -4.3164960 3.9530511 -0.6699860 -5.1043508 1.0955696 -4.5693152 -4.7118490 -0.1471098 4.4907763 -2.2526829 -1.9125039 2.3306258 3.1374479 2.9393791 -3.0607772 -0.7306234 3.4411333 4.4368319 5.4726051 1.6125937 5.3131138 -4.0261278 4.7733758 1.0202504 -2.2186853 3.5071463 -5.0564399 4.9239827 -0.8636428 1.1246477 2.2789219 -4.0153253 -0.6087612 5.1635728 -3.5023364 4.1001918 -0.9273655 5.1328634 3.8815623 -2.4424786 -0.8682017 1.2024080 -2.4156777 0.8629852 -1.9363543 -2.4818178 -3.8788439 -1.8172645 1.9902245 -1.5844553 -2.2212008 0.0605649 2.1496543 0.2559193 0.4091138 3.9564253 0.4656901 1.3223194 1.5411974 -0.8590226 -1.7930243 -3.5801439 -2.7988409 4.9657315 -0.2190145 3.2867336 0.0840043 0.0943421 -2.5141939 4.4500633 2.0310116 0.9081708 -0.8613726 -2.1587531 -3.0241024 0.2202201 -0.3044893 3.5827459 3.9071156 0.3490542 -4.4472327 1.8556319 -1.7841011 -0.5202857 1.5924333 1.5476473 -3.6868879 -2.0373656 -2.8270984 1.8451482 -1.9962830 2.8959012 5.0238114 1.4312674 -1.9342451 4.3471631 1.4509781
session 3.3229088 -2.0108577 4.2761138 -5.3267005 -4.4248995 -4.4422308 3.7072920 -0.0728669 1.8046789 1.9763760 4.8528374 -2.5732828 1.7817684 -3.7599813 -2.7308075 0.4905544 -0.7481794 2.9870649 -1.2330133 -1.5213157 1.8166312 -3.9363456 2.4965152 -3.4587063 0.8981303 -3.6591673 -3.9929221 -1.1328734 4.7048481 1.5059882 1.1660262 5.2625540 -3.4156977 1.3606560 -1.3359056 -2.0328191 -1.1896606 4.4982039 -2.5726714 -3.4896699 1.0148419 -2.3635652 2.3703522 -3.8431074 2.3686443 -3.7327142 3.2337598 -0.5821676 4.5595469 2.9363136 3.0863673 1.2374651 1.4116378 1.7018987 3.1071294 -1.2218281 4.3365933 0.5905620 3.1933669 3.5878818 4.2417178 -2.0316483 -4.4098825 -4.1427455 -1.9784252 2.0068529 -2.7667969 -5.0013233 -3.7060819 -0.8579920 -0.6370857 -3.6670259 1.8491420 3.1541017 -2.6188247 2.7697159 0.1674134 2.4938779 0.0811902 -1.8766647 -4.5882049 0.4105413 -1.6519228 -3.8738240 -3.1753249 -0.0742250 -4.5361580 -3.5298489 -1.5389255 0.7081470 -4.9792588 0.9274104 0.8677907 0.8569744 0.1889544 1.4374383 1.3915607 -0.2643463 1.0223445 -1.2338250 3.6886007 -4.7325314 4.6024442 0.5890227 2.6903577 -4.0973235 -4.4047583 1.2797545 4.3446927 1.8440199 -2.7507506 -0.7092937 -3.1750194 4.6929012 0.0955646 -0.4435792 0.5639964 -0.7465627 0.3984493 -4.0603113 -3.2480297 -1.4577180 1.9835496 -4.0379019 -2.4151439 0.7019508 2.3576336 -3.8349260 -2.7310910 1.7047592 -5.2811503 -3.8809914 3.8480604 -1.9509844 1.8749037 -2.3442271 5.1690041 2.6632092 -1.6384087 0.0375730 2.4784999 2.8481645 -0.8776654 3.1889769 -0.5826667 -2.7255443 3.2822478 4.9075816 2.2359494 -0.5912519 -4.3297617 -0.5419534 -2.4367310 -0.3486348 -0.3582552 3.9628320 -2.0820255 1.7162225 1.8350767 -2.3621964 -2.0469101 4.1101081 3.4908101 -4.0110645 0.5330583 2.0650765 1.7238523 -1.3253201 3.5576688 3.6216559 3.4856376 -0.6852535 4.9133470 3.5901977 -0.8368388 -1.6539954 -2.7787582 -1.6557074 -0.8319401 -1.5433143 -1.4262374 -1.7898228 0.3451820 -1.5774392 1.6104606 1.0314135 -0.1620760 4.9262696 -2.3534004 -4.3000374 4.1203128 -2.8578634 -2.2879596 -3.7548722 -0.2478462 2.6745823 0.9969197 -2.3944785 -3.0505917 3.4713663 0.4535997 2.4757121 2.8086471 3.0278360 -1.1813897 3.7357086 -0.7014881 -0.4469163 -0.5248939 4.3699441 1.1514706 -1.8676103 -0.8254734 -4.0687838 4.8187844 -1.6050101 3.3438224 -2.1225424 -0.5665307 0.8489513 1.4560317 2.8923390 0.0155472 4.0914755 1.8159563 -3.5862671 2.2442463 -3.8526519 0.8069828 2.8460945 0.9790074 -3.0350746 -2.2353597 1.5709997 1.3603321 -1.0557103 3.9910867 -1.8623226 -3.7000753 1.6098855 -0.1191714 0.9012630 -3.5752698 -4.3549122 -4.1615803 -3.9956672 -2.6094617 0.7073325 -4.6742729 0.5382778 4.3594880 0.4994055 1.2051958 4.8138566 -4.9891159 -1.4276984 -1.3175771 -0.4474669 1.9115784 4.4538114 -3.5091927 2.5945833 2.6241129 -0.6016862 1.1156222 -1.5715356 4.4994749 4.5738273 4.2913265 3.7336490 0.0497005 2.9430902 3.7905994 1.8750204 -3.0948633 -2.1091979 -2.5708472 -2.0354114 -3.1087206 -4.3177091 2.0495688 4.6763408 0.7596465 -0.0475536 3.7804082 -3.4129840 0.9744802 -0.2181149 -4.0215870 -1.7121637 1.2339064 -1.0432643 -1.4244287 1.4925799 1.4372389 -3.3635849 4.7258705 -0.1463420 -3.7663870 1.4940373
schema -4.5610009 4.3930052 -0.7236158 -0.3758854 1.3331150 4.8200284 -3.5396662 3.1591038 -3.0022782 -2.6466629 0.7045871 3.0824513 -2.7084052 -1.4679837 0.2697185 4.2530633 0.6177988 0.9623797 -0.1770538 2.2992320 0.5587616 -1.0166899 4.6390919 2.6120272 -2.8431098 -5.3675854 -2.1327868 -0.8684168 0.4682690 3.0859298 -4.6572968 -1.6823097 -2.1579459 4.4867262 1.1501020 3.7852985 -3.5893347 -3.6131352 -1.5425858 -2.0848460 -2.6847971 -1.5982141 -3.9116028 -0.6156118 3.2371664 -2.2531579 1.8943934 2.9079448 0.0962388 -3.7207462 0.4892925 -2.8357110 2.5049825 3.4740338 -2.3219202 1.7579171 3.0085581 5.3135638 3.3346489 -1.4919486 0.8554501 3.4217323 -4.3534476 3.1231982 0.7658498 0.7854444 2.1035489 -4.6466305 4.8430986 0.2617909 -1.4120823 2.7231116 -2.7899149 0.8539386 0.8532971 -1.9932339 3.3102031 4.1994281 5.0616862 2.5295169 3.6294225 4.3755789 3.1224883 0.8405440 -3.2457478 1.0600801 -1.6156878 2.3124427 3.5455968 -3.7836982 2.4655992 0.6477816 -0.5462187 4.7169989 -0.0351973 3.0208627 1.1725570 3.8122548 -1.1062412 -2.3422031 -2.7062044 2.9879406 0.6647269 3.8584128 4.5008759 -1.3342352 -1.8917929 5.3400621 4.1283808 3.3592464 0.8304733 -3.7945844 -3.5574140 -4.3536001 2.7695435 -0.2449374 5.0449856 -3.8941613 -1.0847533 -2.8003573 3.5058574 4.2217745 -3.5941065 3.8285282 -4.8450973 -2.6158266 3.4415157 -4.6878342 -3.9154880 -3.6747471 -1.1176745 -1.5414736 -3.2660180 -4.0384799 3.2548155 2.9785359 -4.3801608 -4.5505536 4.6254201 -4.6356008 -4.0976128 -2.0849390 -1.1790217 -4.5009853 -3.2975862 -0.1480478 5.0194218 -3.6117032 -0.2030404 -3.7263835 2.6388861 -2.7994158 -4.1593599 3.9884265 -4.1419380 -2.5472065 3.6126793 2.2352702 3.1124364 -0.6651057 1.9141913 4.2535000 -0.4019505 -5.0484244 3.0659633 -1.6110949 -3.8373634 -2.1408496 4.4733638 -3.3898411 -0.2992370 -0.8461239 1.3551455 -0.5481953 -0.0002823 -2.1935674 0.0091243 -3.8206970 -2.3544380 1.9531166 3.5824912 2.0955770 2.5098824 2.3778227 3.8081598 0.0318801 3.5621450 1.7208718 4.2161671 2.0190243 2.5019815 -0.8009244 -4.4457454 0.1482406 5.1407959 0.9924766 -3.4392172 4.6419660 4.9947440 -0.7304463 -4.0163604 -1.2123967 -2.0613867 0.5759261 1.5883931 4.3724774 2.1194187 2.3556185 0.5487160 -0.2115710 1.2358314 -3.4281087 -1.9850564 -2.0483237 -3.7476031 1.5432147 3.5496309 -3.2171799 -2.0510798 4.6766484 -1.1122112 0.2482426 1.0950035 -4.3618724 -0.9906672 4.5215334 1.6875001 0.7345226 3.6425232 -4.3306255 -0.0124994 3.9533433 2.1269457 -4.7272496 2.9398021 3.8658465 5.3487265 1.5078902 -2.8905916 2.9712790 4.6848811 1.4058891 3.1747317 1.5506013 -0.2757318 4.8314918 -4.2938468 4.6214042 0.3024662 4.7216011 -3.1307687 1.2700614 1.8406200 -0.8650814 2.4099657 4.6603577 -0.6530007 -1.3400280 -1.8714579 -4.1334230 -1.5564062 -1.1207306 2.9565919 0.6529749 -4.4523113 -3.6797338 -0.1298335 3.1645353 3.2594141 -2.6421297 2.8545603 2.7664865 -1.6686002 1.9951118 3.7966859 -2.1156912 -0.9056640 -3.5608777 3.6176591 4.0757652 3.9510187 -1.9502324 2.9204192 -0.8571350 1.0849487 1.4946943 -1.8823897 -1.7825372 -0.7815075 -0.2815361 2.7143817 -1.7135872 -4.1804998 -1.6996777 -0.5914053 1.6251414 -1.4863836 -1.3190632 -1.4108408 0.0280620
numerical 4.3750141 1.6535318 -0.6678111 1.3705266 1.7114739 3.9178223 3.5770400 -4.0346329 2.4268443 3.9068838 2.3794279 0.0431484 -2.4731363 3.6091576 -1.2096029 -0.0843871 -2.4586351 -4.5750297 -4.2137898 -0.8622632 4.6329956 -0.9197992 4.3474673 0.8790556 3.8824084 -2.1342217 3.4240656 -0.8939039 -2.3188303 1.8622951 -1.3623146 4.0308460 3.7779674 0.4272720 -1.9289879 -0.5215718 -3.6588394 -0.7411836 4.8439477 1.2376485 -2.9933125 -5.1155623 -0.6397252 0.5965327 3.8004582 -3.4886898 -1.7104238 0.5530609 -1.3999815 2.4618925 -2.9241316 -1.5072189 1.3163319 2.6826399 0.4491257 -4.9244295 5.3275445 -1.1729930 0.6776172 -1.5595491 2.5605209 -3.7192286 -2.4615315 0.7097818 3.1173411 2.5815929 3.4900628 -3.9243767 -3.4728467 -2.9627785 3.8715117 -0.3761061 5.1136905 0.6938657 -4.4253885 -0.5125045 0.8670120 -2.0998998 0.7210125 2.4218368 3.8464418 1.8998635 -3.4695806 -1.4743631 2.9506293 -3.7611452 -2.7148276 -4.6195293 -1.5134773 0.2842915 -4.3261934 2.1543385 -1.0617501 2.8361352 2.7903728 4.1796713 1.8352477 -4.2438968 4.8229444 4.2174235 -3.8335006 2.8265557 -1.6222708 1.0935740 3.9103856 2.6487649 3.5276111 -2.5471323 0.0472750 3.0236630 1.7993334 -0.8805036 -4.2899773 1.7978498 4.2981051 4.7040561 3.2862450 -3.3794627 -2.0717225 -1.7096675 -4.7150021 5.2632786 4.5610824 -1.7241208 -3.1507696 4.0456272 -1.2277171 -3.2222207 -3.1380967 1.8284614 1.7381536 2.0545248 -0.1537257 -2.3579617 3.0171832 1.3625867 0.0268136 4.1572236 4.0211670 0.5482720 -3.7816086 -1.6830771 -3.8957087 -2.7948995 -3.9949996 -3.9799862 -4.3233003 0.3616199 -2.0619037 -2.1608888 -1.6864939 2.6950532 -1.6248859 -2.2374670 4.7433391 3.4030320 -4.9120033 1.9383058 -4.6031133 -2.3026637 0.8197570 -3.1781958 -3.7187564 0.0857803 -0.6588511 -3.7321168 -3.0351551 0.5955862 -2.6904332 2.0172881 -4.2753934 -2.3581656 2.2836555 -0.7285940 1.6918298 -2.5525904 -0.0707113 -2.9896371 -0.4915815 2.5743337 0.0632008 -2.8426066 0.2128844 -2.4723950 -0.9816508 0.4931997 3.5822573 -2.9142857 -0.6083073 -4.2679492 4.0869131 -1.8602207 0.9917478 -4.3373256 2.6601170 3.6844952 0.5223823 5.0298755 4.4243716 -5.3145582 0.7620665 -1.8444435 3.5894564 3.6113923 4.2267101 2.7692627 -1.2716899 3.6667888 3.2665908 -0.3698302 2.1499534 2.2121808 -3.0130169 -3.0884294 4.0965227 3.9223804 2.9415816 1.4110481 -2.3093228 -3.3464873 3.7736315 -1.0583926 -3.9574412 2.9806053 0.5854724 4.5886207 3.4499025 2.4786010 -1.4691699 3.4178911 4.6419347 -0.9197173 1.4500875 -3.2285024 4.3893218 -1.3141298 4.8662579 2.9586143 -2.1875576 2.7813573 3.2108323 -0.1845104 -3.0998962 3.5675075 2.0205921 -0.9257207 1.9430603 -1.2595694 2.0148701 -0.4070565 2.5764911 3.7608915 1.6533674 -2.9793457 -0.9439663 -2.9218888 -4.6858794 0.4827436 2.2981798 -3.3560122 1.5651394 -3.0483371 3.5813942 4.7095072 0.7711768 0.4049488 3.4896757 -1.2707278 3.6761848 -1.5790435 3.2954067 3.4931707 2.5047000 -1.1250033 1.8938617 -2.4000354 -1.9574052 -4.4802645 0.4136882 1.6185971 2.3676249 3.4532032 1.4557240 3.4496190 -4.4987447 0.2502957 -0.2589741 -1.5633955 -0.2714851 1.0649429 1.1156888 -1.8702826 3.5568571 2.7022144 4.3095154 3.8428888 4.3231647 -3.5158978 -3.5146522 -0.4394824
flat -0.5676332 0.4295597 -0.8589538 -2.4132070 -1.2691014 -1.9157488 2.6522871 1.9436580 -4.4221290 -2.2367826 1.4182912 -5.3125003 -3.7330572 2.3987317 -4.0501289 -4.6821129 -2.5169162 3.6241777 0.0607733 4.0297061 0.4101386 1.0899448 1.1354720 5.2518293 -3.9686313 -1.6146207 -1.9010985 -0.8529671 -1.4130015 1.3571747 -1.4992267 1.0267373 0.7899954 -0.2904082 -0.5857906 3.6542019 -3.6482895 0.5799042 2.8731082 5.2210391 -0.2443014 -5.3506472 3.0742168 3.1401426 0.9332903 -2.5037622 -2.3724725 2.7376088 1.1449478 -0.2311626 0.2463417 4.8565642 -4.1196944 4.6607815 -0.9085604 2.0714296 -2.5445922 -1.2995679 1.8569252 -4.7875283 0.5747022 0.5033670 0.9324693 5.0437608 2.2248605 -0.3792872 -3.2405392 -2.7134710 3.0890370 3.2390095 0.6928908 -3.8592698 2.0547416 -3.1990341 -0.6533412 0.4968493 -4.5410926 5.1500948 -0.5920023 -5.1266769 -3.2006871 0.6908058 -3.6837073 2.1035473 0.4643025 1.0338225 0.2768939 1.2266375 -4.6092817 -3.5253884 0.9248436 -0.3687457 4.6118242 -0.4477031 4.5791913 -3.2273490 -4.0172832 1.9633630 4.4574224 2.3453989 0.0435808 -2.4089149 -4.3671022 0.2560977 -2.1921754 -2.8126677 1.8860530 4.6552486 -0.4083716 4.2890732 4.1171368 -4.2371126 -2.8156892 -3.1778607 -2.8750877 2.5905066 -0.9913198 -0.5470684 -1.2839487 -2.6489514 -1.0202708 -0.0322371 -2.7471412 3.3782634 -1.4249873 -0.6912046 3.9393764 -2.4825262 -3.2503325 0.2773215 -0.4300477 0.2629338 -4.4355730 -4.9120777 4.7814182 -0.8038609 -2.3352201 4.0127419 5.1010012 -3.6997776 4.5721619 3.2400545 0.6277411 4.0163231 -4.4111741 -2.1981682 -1.8896527 -1.9064647 0.5427118 2.0758900 5.1467540 0.2774892 4.0805095 5.1821080 0.6183174 4.4514915 0.1092988 1.3385558 -2.9222292 -4.4126535 0.2479550 3.5272506 2.2724798 4.0314194 3.8938107 -1.5260877 -0.2062507 3.8123918 4.3346500 -1.6472320 0.9620748 -2.4700488 -1.5591068 0.0794966 -1.1023945 -3.2893110 0.9769549 -3.8869707 -3.2732591 -1.6393077 -3.7179531 -2.9052488 -4.6413942 0.0895014 -1.6456817 -0.5738618 2.1358633 -3.0656385 2.9502208 3.2476890 -2.5329274 -2.6369261 3.1315766 4.3804012 0.7415404 3.8469472 4.1668663 4.7975380 -1.3636983 0.1194068 -1.5942775 1.6429780 3.3318432 -4.9087184 -2.9814398 -1.7877432 -0.9424848 0.6860683 -4.8191749 -3.3098088 -1.3003501 2.8923583 -0.9355869 0.3394840 0.4530091 -2.4253746 1.5938062 4.4595806 4.6937117 1.7343163 -1.3471681 4.3938885 -0.2155162 -2.5868991 -4.0089801 -2.7367792 -3.3194272 -2.8870101 -2.2385808 -0.1523543 -0.7866386 1.0308217 3.7839872 3.4657611 -3.6866233 -3.3005381 0.6243955 0.0489608 -1.9640855 1.5239883 -2.2524458 2.8154365 -0.9154976 -2.0918988 4.2481148 1.9489777 1.3398025 -3.0819279 3.0704865 4.0017047 -4.7204571 1.7487115 4.3821888 -3.2366659 4.6393824 3.1000910 -1.7323276 4.6473660 -0.4061601 0.6064899 0.4982089 -1.4074769 3.6504723 -2.5992043 1.5773027 -3.0249506 -2.0257859 -3.0814115 -2.6217343 -0.9087016 3.5048791 -3.0767960 4.2318259 -3.1369211 -3.5806312 -3.4625541 5.2440030 -2.4379733 3.5068825 -4.7052196 4.6318682 2.4034668 4.4588786 -1.5384132 -0.0604926 1.8774872 -3.9941041 -1.4186007 -3.5376593 -0.7315790 1.2496300 -2.7750516 -3.3575804 2.7071000 4.1073779 -1.5076312 3.6060647 -2.7667667 1.9528926 -1.5594501
becoming -4.1057422 1.1880493 -2.9326331 -0.3603322 0.0126093 -0.9432720 3.3427917 -0.1264054 -1.4494172 5.0723890 4.6533883 -2.4137210 -4.2625249 0.3494310 -1.3857785 -1.9111215 -1.8972145 -3.7256893 3.0219893 -4.3403565 3.3502384 -0.9990550 -0.3561259 0.5703888 -0.5854548 -2.6316763 -0.0917639 -0.2802322 -3.2989200 1.5627104 3.4402436 -2.3509315 1.9182776 -0.5288692 1.0178636 0.0793814 -4.5610516 -2.6158490 2.0727312 0.8640811 3.3600575 -0.3307460 -2.7281945 -0.6436647 5.0037901 -2.1922858 -1.3170853 -0.1832366 -2.0035866 -1.1123342 -1.2001751 0.8714105 -1.9017854 4.3732925 1.3046732 1.8675170 0.0033681 1.1561005 0.6945045 0.9890847 1.3092198 -3.9978286 2.3075707 4.3126440 -0.6260954 4.4784763 -2.6664064 4.4251959 -4.0010243 -0.2075479 -0.7244148 0.8415308 -3.5822078 -4.6009341 2.5779690 3.2433679 2.8360112 2.8219590 5.0214221 -1.6942385 0.7084294 -3.6089429 0.2000516 2.2263099 -4.6606555 -1.9538955 1.1165673 -2.7959191 -3.8003079 -4.8373459 -2.8419971 1.4763513 3.9941481 1.7424396 4.2397735 -4.1674538 -1.8306101 0.5146410 2.8431527 -3.7627181 2.1435013 2.3287903 3.2936882 -2.6364174 4.6301354 -1.3101182 1.9465183 3.2615948 -3.1558559 -0.6874055 -0.3255347 -4.6014929 -2.5154700 2.4444933 0.7505635 -2.6942637 -2.1529200 -0.9356389 2.2160882 2.7281936 2.6276227 1.8954668 -0.7279325 1.0925875 2.7611379 4.0417769 1.6334273 -4.6957309 3.8553804 2.2562794 0.2011482 -3.3622255 -2.5879248 2.2437816 -0.0141640 3.0891146 4.3435334 1.1281174 1.4692945 -4.7091310 -0.8013054 -2.4818118 -2.9000572 1.5843047 0.1931843 -1.1247764 -3.2116433 1.3356251 -1.6735740 2.0956922 0.8349182 -3.1932171 3.5686067 1.5022549 -3.5289956 -1.0660969 -2.8651886 -4.0870269 4.4571657 1.2651958 -0.3017858 2.2983558 0.3438937 -4.9973792 -3.5474860 2.5650065 0.4584875 -0.6040625 3.3646385 4.1448678 -3.0369683 3.9615873 -1.2521904 -0.1034227 -1.0422253 -1.2002071 -2.3788665 -2.0175977 3.6149673 -4.4643351 0.4861813 2.5881968 -2.0009075 -0.9149667 3.2137748 0.9549117 0.6447506 -0.1135007 1.3512524 0.6694680 2.5694563 -0.9076359 1.4106050 2.4183152 4.3642194 -4.3754889 5.0009996 -0.8969892 4.8418207 0.9169546 -2.4144546 3.0436830 0.4829960 0.3059281 -3.9290663 0.5171222 -4.4119478 -0.7363611 -3.1275069 -5.0248934 -5.1173707 -2.4975105 3.2839969 2.1146268 -3.6872478 2.5996317 2.6295566 3.3524805 2.9298068 4.7995215 -0.3976563 1.0180400 1.9051321 -2.1357284 0.8692734 3.9295527 1.5466691 2.1773756 -3.7015441 -1.4906923 4.1221136 -0.0510264 1.6055620 -0.4164752 -3.2499695 -4.0218282 4.6377829 1.3377740 -3.5344048 0.5604785 -3.8168490 -3.7746349 -4.3942045 0.9937363 -2.3655494 -3.7883077 1.1998783 -2.2757461 0.8353618 -4.1172491 4.7674430 2.1875396 -1.0576338 -0.3122751 0.8389810 4.4815630 -4.2323508 0.4263552 5.0272507 3.5281941 2.1058457 4.0438562 0.6279304 -2.8775434 -0.6120918 1.0888041 -1.3454004 3.1626362 -0.6220595 -1.9852017 0.9709219 -4.7371133 4.3485101 0.3825373 2.9890243 -2.8987088 4.1453497 -2.0993023 -3.4225853 -4.6066992 1.7181620 -0.9788048 0.3062083 2.6430599 0.8687690 1.7613667 -4.7043230 -2.8498237 -3.6572028 3.1127236 -4.6311735 4.9218662 -2.6272194 1.5144175 -4.3289895 2.1300012 0.1257026 -0.6108276 -2.5372374 -4.5768534
published 0.8529070 -1.2545618 -5.3475046 3.6948199 4.2183200 -3.4936483 3.1006594 4.7910830 5.1931510 -3.6745700 -1.1526594 3.4214646 -5.1655077 -4.1719499 1.6729470 3.3094801 0.0152284 -3.8902203 -0.8799358 -4.5299196 -2.2666691 -2.3995962 -2.6066572 -4.4474921 3.2258874 2.5657317 1.2005432 4.4713772 -3.4363134 5.5850382 1.7678985 -4.0070512 4.1772895 2.5321545 3.3789282 -4.0966842 0.4097015 1.2781824 -0.3105182 5.2782581 -0.4045298 -4.0109179 -0.6408817 -5.2175924 -1.5067064 -0.0122926 -4.5367563 -2.5698462 -2.0357410 3.5127287 -4.7635512 -2.8212720 0.9067193 -1.0630067 0.7605675 0.2228094 0.0047691 0.3385872 0.3393387 0.2104845 -4.0296280 1.0628722 -2.1034826 -1.0006441 -4.7945659 1.8250442 0.6494982 2.9779398 -2.3728957 -5.4862641 -0.1269464 1.9064235 -3.2415878 0.3437262 3.9822563 3.6914865 2.1452339 -2.3124870 -3.9219484 -0.0945549 1.0010262 -3.2264497 -2.8142389 2.4438215 0.3676410 4.9616598 -0.6818830 4.2390605 -3.5235814 -4.8665793 -3.3315489 1.4782671 -4.8191011 3.0526390 -1.8848087 -4.3779415 -4.1074031 -2.1021889 3.3750691 -1.5729652 2.3918714 1.5346150 0.2436138 -4.0248680 -4.7260387 -3.9586227 5.0425605 5.1593422 0.8455410 -2.8940587 2.0326104 3.8952807 -3.3840425 -2.3594777 -0.1164205 -0.0872640 -3.6632057 4.3626249 -0.9072464 -1.6880482 0.4040018 -4.1304377 3.8946531 -2.4660775 -3.6877927 2.2747171 3.1278736 -4.0625805 -2.3479988 1.3371755 -3.6952615 1.7511256 -2.9179005 -2.3972246 0.0731479 1.7127609 -1.9628884 -3.7714367 3.5972633 -2.9263238 -4.0772362 4.1825479 -1.3194601 -1.0749602 2.5589060 -2.8142797 -1.8665062 2.4329918 2.5343946 0.7700987 3.7011962 -1.7526816 4.1445665 -4.2338741 1.9512826 -3.7840488 -1.2891352 -1.1861754 -1.7592065 1.1513613 1.0184708 2.0756013 -4.1945180 -1.5689090 -1.3404033 1.2514294 1.7334002 -1.5748260 -3.0943387 -0.7126742 0.2414362 -4.5433542 2.2903642 -0.3625686 -3.2081523 2.5150933 -0.9341359 -2.7639243 -0.4788691 -3.1246359 -0.1254009 -2.0391526 -4.7944822 1.6774938 -0.5256684 -4.3725911 -0.6945029 1.6239339 2.1723231 -4.3716401 -1.8171868 3.9878685 2.2595009 2.1274933 4.4263825 -2.9939268 3.9214842 1.4911040 -0.7300807 -3.4690914 5.3956060 2.6557158 -3.3121916 1.5996632 1.5424954 0.2720804 -1.8457030 -3.2318321 -4.3340536 -0.9424909 4.2639810 -0.7155703 4.2337046 1.0984528 -0.3022089 0.8335073 -0.8353240 0.6630882 -5.2143724 -2.1948471 1.2308274 -3.9993102 -1.1493876 4.6461240 3.1653633 -0.5919575 -5.1591375 0.8555850 4.2181921 2.5300833 3.3262429 -2.3182828 5.0503751 -0.0448060 -3.1651768 0.3855019 3.0723605 0.3940590 2.2552768 0.5657170 -1.0980072 0.4765984 3.9385496 -1.5679159 1.9231233 1.4449360 -4.9348238 -4.3128516 1.8291997 3.3986213 -3.0429875 2.4066774 -2.7988469 -2.3672064 1.8425838 2.9781209 2.8173335 3.5001018 4.3875375 2.8080021 3.2110717 -0.9969759 -1.2982041 4.3107271 4.3545465 0.2567464 2.9845313 -1.9381180 -0.1298414 -3.8527703 4.5301560 -0.9725166 -1.7362926 -2.6785020 2.2008694 4.8464599 1.7210114 -3.2470488 4.1865028 2.0454044 2.4581858 2.3339341 2.4214263 2.9218341 -1.8575661 -1.0077458 3.8016463 -1.8011720 -2.4401543 1.8461994 4.6979432 -0.1312006 4.2304111 5.0226523 -1.5628027 4.4420254 2.3359750 3.8328241 0.3856144 3.9835746
maximize 3.7145735 -1.5239940 -4.4103686 -3.7093130 1.4778535 -1.8225048 2.9531503 -3.1932737 1.0736332 1.3815926 4.9924797 -5.0101080 1.7282218 3.7492874 1.1018201 -2.2230394 -3.4565892 4.1698984 -2.9319518 1.6956024 -4.6245440 2.9298306 2.6867698 4.1177880 4.6966893 -2.5555919 2.2990421 -4.2524527 3.2017243 2.8759369 2.6912707 4.9594093 -1.9727883 2.2342340 3.2503007 -0.4964426 4.9155830 3.3399209 0.5909000 1.4285315 1.1183144 -0.8756631 0.1091767 -1.8621187 4.4659438 1.7927718 -4.3735817 4.1433075 -3.7492565 1.1131093 -1.8611989 -1.0894096 -3.5411672 3.5995313 -4.6072929 0.7537230 4.8602576 -3.0836712 -2.2136702 -3.8623014 4.6141656 2.5254170 -4.6026525 2.5440801 3.8377054 4.1917585 2.2006078 -4.4992469 0.1952447 0.3987541 -2.5120844 1.3274597 -1.0102461 -4.4465502 -0.3763820 4.9076723 3.0877354 -3.8380783 1.5580613 0.1971160 2.2459258 1.6662205 3.1093890 -5.2125506 2.8487216 -4.5693776 -3.9906262 -3.0298708 -1.4268721 3.9004201 -3.7812999 2.5387062 -3.0047290 -3.0408677 2.5424004 4.4158688 -2.3568037 -0.6721720 1.5630002 2.5463536 0.0888142 -0.0341983 -3.5455952 -1.9892515 2.2898401 -3.2039068 -2.4191784 -1.2558684 -2.8045156 -1.1822323 0.3149938 4.8760002 -1.6742935 -4.1036823 -1.9902251 -3.7201819 2.4459597 -4.1804207 2.7748033 3.9414357 1.9436112 2.7563224 -1.8177211 0.0994731 -4.8031286 -0.6810633 -3.5012334 -2.2522553 4.6800105 4.9278933 -3.3344600 -4.6904001 -2.2859496 -1.4544142 -4.3988979 1.3169567 -3.4374115 0.8537012 1.0100394 2.9560511 0.4510478 2.8751684 2.8069653 -2.2059863 3.6587874 1.4683632 -2.8746320 3.8791851 4.5489890 0.8843234 -4.2792491 -0.1448746 3.5090231 0.3612289 -3.1223781 -3.8419434 -5.1110737 2.0350311 3.2503101 1.5799096 -0.5144793 3.4981542 -0.7577088 3.1340120 -0.1431627 -3.7097205 -4.1548786 1.4804346 3.6147816 4.4283931 0.7335190 -4.6666686 2.3216825 -0.4321837 1.7562814 -3.2711078 -0.8198956 4.5045409 -4.5579021 1.3984725 0.9556468 -2.5402128 -1.8567210 3.2710482 1.4920630 -4.0498510 4.5510672 -1.4723587 -2.3222015 -1.1818015 -1.1466275 2.4623340 -0.1494257 2.1932246 -1.7116069 0.6376254 -4.4823760 -3.4754220 -2.6691937 3.6285615 3.2115893 2.3446293 -2.3081960 -0.9706933 1.5779861 4.7039578 -4.5452809 0.6411208 -2.4285109 -0.7765554 -2.2799815 1.3535625 -5.1241810 -3.5608590 1.6100321 4.0927388 -4.3145357 3.1942526 0.9289775 -2.2549948 1.0623306 -2.7301873 -1.7146870 2.3960157 -1.9883064 3.5912456 3.1189830 4.4603844 3.7111026 -0.5123579 2.4834754 0.9684232 3.0904252 2.4216082 2.9334703 1.9026430 5.1459417 -2.3087750 -0.6321559 0.3862344 5.0028820 2.3809857 3.4453153 0.8288790 1.8372553 -2.2824568 2.5637987 -2.8332798 3.1294779 -4.0934923 -4.7805520 3.6013319 1.3740947 -3.9886958 -4.8757993 2.8813191 -3.4793449 3.4471680 -2.8546967 1.9098644 2.6778970 0.5151708 -1.8358259 -2.6803082 -3.6564868 -4.3330067 0.8712666 0.3793859 0.5386123 -1.9943668 0.3929600 -1.9596586 0.6673600 -3.6393906 -1.6417875 4.3856984 0.4626359 -3.2605675 -3.5917262 3.4527403 -2.0708258 4.6070026 -2.1989860 3.6664867 -4.4344921 0.4037168 3.7803093 -2.5491111 0.0408907 -3.9328061 -0.7118982 3.6551175 1.1553849 -1.8525142 -2.7721675 -2.0063393 -4.5848855 3.4209891 -1.0732137 -0.7527010
portions -3.1666292 4.4610692 0.6850961 2.5871459 1.6896423 -5.1048674 -3.4471341 -0.4785993 4.2210651 -2.1140807 2.5096393 -3.8675292 2.3778850 -4.6483672 2.2825443 1.6068426 1.1624348 -4.5039028 2.3789778 0.9632045 2.5368263 2.3379073 2.5379132 -2.1096401 -0.4833557 -1.2804674 2.8485807 0.8699979 -3.7467396 3.5434879 -3.5191225 4.0474468 -4.4636889 3.3482192 0.3716660 -1.2120928 -3.0648448 -1.0206775 -1.8731995 1.1219698 0.6548422 0.0463653 4.7910563 -3.7128059 0.6117009 -3.5999321 -0.7210209 0.5356668 1.1142783 3.6221660 -0.2360523 -0.4381883 -2.4042518 3.9201980 -2.2619269 -4.3464789 3.8205003 -1.4934506 -0.8198353 -2.6339258 3.8218064 -2.9917261 -4.8207450 -2.1027834 -0.2349080 -2.3428608 -4.4326302 -1.1265004 -5.2233303 -3.7335144 2.7528609 2.1405175 2.3256166 0.9411004 -2.8725943 2.9966213 -4.4958904 -3.0804547 -1.2380430 -2.8784539 -1.2792597 -0.2020998 2.8279353 -4.8512133 -0.8563601 3.1607778 -1.7851895 -4.9810107 4.6540429 4.4869029 0.0905135 -0.0675595 0.6109467 0.5184464 -1.1891892 -0.4034179 -2.7515677 0.4991671 3.3211299 2.8461274 -3.2793854 -3.8927344 -2.6794171 -1.7174900 2.4824263 -3.5848322 -0.3361931 2.2396237 -1.6288382 -1.3391700 4.3843184 -1.2554550 -2.0832355 -0.6411962 -2.4337494 -0.5528560 -4.0634451 -2.4896891 2.9814004 -0.8830097 2.6426254 2.4830209 -0.8096698 -0.3353442 -4.4557884 -3.5190365 -3.7996191 -3.6442869 -1.1204147 -0.1819572 -0.0416144 3.0293324 -0.7031693 3.5433687 1.0222130 -1.3671550 -3.6488215 -1.8893391 1.7212327 -0.8679936 -0.6888877 2.4376876 4.0872373 1.9605428 4.5319750 2.2278257 4.2765781 -2.2212133 -3.9617298 0.1857048 3.9871150 -3.5313713 -0.1526804 -1.0924505 2.7957326 -1.8784999 4.9778814 -4.2794322 -1.8645321 -2.4538816 1.4836183 4.3703489 -1.3621751 -4.6453229 3.2136794 -2.8425999 4.5396277 -3.8297002 -3.3852556 -0.4608150 -2.1346746 3.6627713 2.7446115 4.3110497 -0.7592956 -2.4928168 -2.2763650 -3.4907060 0.2267745 -2.6159385 4.9580945 -3.9025904 1.4288808 0.6525428 4.9165702 1.0862119 2.5006233 -1.4232485 -3.9349673 4.0742476 -0.3989567 -4.8571384 3.9279792 -4.1541902 3.0829473 -0.2011848 2.5266646 -5.0577309 0.8634734 0.5573382 3.9625105 2.1272471 -1.8380012 -0.1026875 -3.9865171 2.5881917 -2.1251921 -1.0857935 -3.7653982 1.2611928 -2.4131941 -4.7751694 -4.6667003 2.7334417 4.1289049 -2.1374926 1.2928071 -0.1312665 1.4364153 4.4618924 1.3691107 5.0004431 4.2669680 3.9076783 2.5544137 -3.8417307 1.9815490 -1.3019574 0.5190231 2.5459230 -0.5026862 -3.3590586 -0.5819924 -2.3031845 1.0779742 1.0663659 4.0855811 4.1956146 -3.7770150 4.0679298 0.1542615 1.8859985 0.9373152 -3.9484075 2.6120469 -2.9732398 -0.5246977 -3.3501891 -0.9117455 3.7408281 -0.4440205 -3.2682560 -3.8815752 1.4075051 -0.9010692 -2.2807003 -4.2345803 -4.3683300 -2.5705549 -3.1764946 2.9020602 -4.8700866 1.3989352 3.4405866 4.5730030 1.7596125 2.7845962 2.6816558 -2.6842761 -3.9239814 -0.9566996 0.6738211 -4.3138239 -1.5884135 0.6225511 4.6717755 4.9262056 -4.3618497 -4.5554233 -0.0634517 1.4518653 1.7952957 3.3972866 4.2388900 3.7068288 2.9063907 -4.3395926 4.7334195 -0.5302398 -4.7966688 2.1564635 -4.4262964 -0.3191279 4.4252827 -0.1138087 -4.8123478 -3.9632348 1.0665084 -2.8396331 3.0915473
subjective 2.9082181 1.2176608 3.4076034 -1.5591758 3.7326223 -4.7956962 -1.1320641 -3.7947733 0.0839110 2.9015048 4.9763039 1.9212661 3.5578306 -1.5303142 2.9803741 -1.6781120 0.1563171 -1.9801501 3.1411506 2.6744929 2.7103224 -2.0146421 -1.3766703 1.8483270 -3.1808493 -5.3986667 -0.7094248 -2.1150884 -1.9850068 -2.8802746 4.0294114 0.2506342 2.4637653 0.4472771 -3.8803137 0.8832804 0.9128011 -3.4488133 3.9940088 0.5590965 -1.7705664 2.8414888 0.6279693 1.1431645 -2.3597071 -2.5318714 -3.9653692 0.0552028 3.2853988 -4.6030629 2.2988999 -1.4653330 -1.5829390 -4.4986021 -4.0953434 -2.1606429 1.5111344 -4.1069975 3.1200039 -3.8646886 -0.3251532 -2.2044829 -3.7165916 -0.5621851 2.0727185 2.4629626 -4.8599261 -5.0562775 -0.8248430 1.4112432 4.1954472 4.8812792 0.7362863 0.3197064 4.4610500 0.7371783 1.6362960 2.2959526 -4.4313262 4.4437985 3.8399312 -0.2401925 -5.2682173 -1.4971978 3.8292283 -4.0173028 0.1584964 0.0598353 0.0301910 0.4618588 1.0508549 3.9056226 1.3449934 -1.1033381 -5.1545076 2.0704685 -1.7173161 -1.8421307 -1.3761134 3.2616594 -2.6530478 -0.1234980 -4.5894737 1.1100552 -2.3613079 -3.1985644 3.7770108 4.8555714 2.5446813 1.0295905 -1.1073993 -2.8900168 -4.6474827 4.9990228 -4.3319312 0.4075616 1.4806568 2.1754284 3.3461089 -3.5256441 2.3196764 2.7039361 -0.2389625 -3.8608541 0.5816000 4.8388492 -4.6378601 -4.9052096 -3.8332116 5.4215387 -3.4290245 -1.8093511 1.5119816 -4.2211004 -2.5103047 3.9745066 -2.5159863 -3.1944208 2.7769301 3.9812758 -1.1070655 0.8770299 -2.3853764 3.3897159 0.8157076 -3.0701116 3.2088416 2.8201947 1.5999212 -4.2108974 5.2168510 -1.5416570 3.6196316 2.1508976 4.1630699 0.3680155 3.2969039 3.3746574 3.1950318 -4.0927381 3.8192079 1.4846541 4.1167222 3.5600289 0.2020177 -4.7128501 3.6611365 -4.1380733 -2.4840880 -2.9762230 3.6806596 0.4668857 4.5932309 3.7382186 -1.1201990 0.6599420 4.9514428 -5.3581117 1.2730016 4.5686498 0.1931814 2.1194697 4.8100648 1.9765004 1.4159094 -0.0348624 -4.5441086 -3.2126789 2.4641765 3.9047336 1.7413706 1.8025580 -0.9263366 1.1327651 -0.2644938 3.4840715 2.2230576 4.8224995 -0.2279842 -2.2868259 2.8099428 -4.7252236 2.4902013 -1.1454660 -3.5007075 -1.7005678 2.3723515 -4.0064466 4.5767542 1.5124954 -2.9252878 -3.9083890 2.1801720 1.3235811 -3.5456978 4.6940905 -2.0889408 3.2498969 -3.8115434 5.0640392 -1.4210221 2.3599692 -1.7879683 0.9037272 2.6765791 3.2963234 -3.4203926 -2.5347789 -4.5685136 1.2676381 0.9963650 3.6135719 -0.0425470 -1.2441634 -2.6354473 -4.4026770 2.1668384 -1.4092694 -3.9212787 2.3768564 4.3767373 -2.9860908 3.0563014 0.4563257 -4.6309802 -2.7343717 2.4039174 2.7586223 2.5708491 2.7771431 0.8897035 0.2788882 4.0882976 2.2793767 -1.8638879 4.3811610 3.8084042 4.4576105 5.1181058 -2.3845892 1.5823598 -1.9014813 -2.2341036 5.0908296 -3.6854251 0.5312706 4.8579674 3.2397613 4.8434195 1.1012482 3.3615863 -0.8502970 0.8642067 -4.1756982 -4.3335494 2.2442249 2.8558019 -5.3589293 -3.3636225 -2.8502297 1.0877500 0.8608078 3.9772232 3.7342656 3.1157180 1.7006577 -4.8842536 0.8709432 2.2993295 -1.6716168 -3.8539312 -2.9012352 4.2268284 4.4875350 0.8333812 2.3549027 4.9512127 -3.3723134 -1.3674538 1.9638020
constrain 1.0172968 -1.5633692 -3.3916207 -1.2647525 2.3343718 3.7223302 0.2328227 1.6897063 5.1057258 -2.2932166 5.3249745 -0.2671367 -1.6005698 -3.0077582 2.2894086 -2.3544967 1.2207529 4.4525359 -2.3747390 2.8132598 2.3387825 -2.0573342 -1.4360656 -2.5748527 -2.2427177 -2.4075914 0.2102465 -4.6879102 0.0497343 -3.6950374 1.3364768 4.1175833 -0.7837000 0.2675298 -4.5535733 -3.2348461 3.6023841 4.4644511 -3.6482470 -3.7496117 0.8666700 1.4629269 -1.5263438 4.1859583 2.9726784 3.5610332 0.2483669 -0.0829727 -3.0269006 -0.6716375 -5.3777074 2.2354906 -2.3350869 -1.2777237 -0.0863805 -1.2447543 0.6882637 -4.0109217 4.9311195 -0.5160504 -0.5143268 3.8822444 -3.0076440 -0.6429517 4.8533044 1.3759501 3.2176492 0.9864604 3.1501349 2.3301246 -3.2143801 -2.9173836 5.1288565 1.9661331 -3.3172501 -0.7096580 4.7897092 1.0862111 4.1184334 -1.4643364 -2.2593493 1.4836727 2.0490977 0.9939409 2.7287167 3.2561053 1.1869435 -2.3528516 -0.5466957 -4.4985736 -3.7718596 4.5490491 2.9316185 -2.5027903 2.3540863 1.3518370 0.2344688 -2.9525502 2.4925974 -0.7047450 2.2682500 -2.7504412 4.4836225 -5.0504557 -1.4445565 4.3504226 3.2532160 1.3913795 4.2445928 -4.5639878 -3.3762194 0.6894957 0.9357552 3.2744038 -1.7764705 3.6004428 -2.2796506 -0.5651564 2.6725012 3.7673478 -2.0367523 -1.4860627 -2.3964639 1.1064701 4.2712168 2.0823646 -0.2400155 -0.7719816 2.2371192 2.4511317 -3.3066106 1.3583868 -1.8467279 -1.7897242 3.5439081 0.9857408 4.0043361 -4.4527361 -1.4737007 -0.8051607 -2.1713026 2.1438272 -0.4969403 -1.1888744 5.1985467 1.3085620 -2.9489370 -3.7757307 3.2319199 -4.9561805 4.2888687 -0.4135030 -4.3231310 1.9068887 2.9256219 -5.2498004 0.2749599 0.0291090 -3.9391390 3.9796699 3.2208232 -2.1282544 4.7372841 3.2127758 4.3975176 0.1506186 3.6952345 -0.8035853 3.8457600 0.9802557 -1.8427831 4.2778781 1.1062419 3.4182107 -2.5976730 -3.2659321 -0.0248416 3.5591542 4.4975560 1.8232312 5.2645344 -3.0109141 -2.9687031 2.7042742 0.9649147 3.8707658 1.2851609 1.3977673 -3.5793962 -0.2021801 -3.8115609 4.1111243 2.1805780 -2.9420800 -0.9723497 -3.4572091 4.8749531 3.8212828 -0.6469818 -3.5738094 2.0730327 4.1480018 0.6413680 3.3596080 1.7247006 -4.3500450 4.7487809 -5.1771495 -0.3380306 -2.5744918 -1.0265539 -0.8332133 2.4782145 -3.9726273 4.7551071 -4.8671368 -0.5768280 -2.5239826 -3.3888459 1.6756855 2.9285738 -0.6155818 -0.5986186 3.0237068 4.8189316 -1.5824657 -2.8058960 -1.7454221 4.5739879 2.1600536 2.8606534 -0.8446879 -1.7300432 -3.5692345 0.9118793 -5.8211302 4.5598893 -5.0411905 2.5282081 0.6877489 -0.3958839 3.1920329 2.6858587 -2.2335549 2.6695937 4.3550909 2.8421297 4.2619035 1.4969523 3.2185097 -3.5036776 -0.9845370 -3.4301046 1.1743922 1.3878991 -0.5254982 3.3893807 3.7014954 3.4373986 -4.4157127 -2.7361656 3.0960694 2.1262143 -2.4668427 -3.3812783 -2.0917437 -3.6533158 0.0507773 -0.1879762 1.0551305 -3.3119304 -3.5272494 -2.9697223 0.4842999 -4.7330080 -0.3422016 -2.3531107 -0.8845977 0.4279305 -5.0668703 -4.1408058 -1.3633332 2.0171241 -1.8665618 1.3736053 3.1960639 1.1275567 0.6755577 3.5916915 -4.2532145 -2.1549969 1.1262495 -4.7582422 0.7653140 -4.4200230 4.4986896 -1.7637753 -3.2559199 0.2583522 -2.2690592
Gaussian -3.8150945 2.2327772 -1.7984947 2.3308338 2.5375468 3.9631862 -5.1171809 4.0717681 -4.1558691 2.8033834 3.9532901 -3.6875423 -5.1921589 3.3774928 -3.2246864 -3.8086296 -2.9467678 -4.1627291 3.2435160 -4.2023384 1.7321952 -0.5446770 -3.6955259 1.1188345 0.8189299 -3.3514374 2.6791624 1.2160861 -2.7624411 2.2055868 4.4348939 -2.5056784 4.2093498 -1.8075198 3.4155364 2.0153442 1.5245098 -0.5075058 -1.5245277 2.7835435 -2.3418418 -2.0968199 -4.7114281 -2.2410509 3.8373617 0.8247023 3.3389374 0.7498178 1.6520967 -3.0115606 2.0016397 0.0180995 1.7934979 -3.2744534 3.4796565 -2.7719961 0.2596716 -1.5378818 -3.2664380 1.8299303 -0.7591075 1.3123488 0.3631540 -2.4655775 3.8482502 1.4840030 -4.1997875 -2.1329994 -0.3697557 -1.2825797 4.5893198 0.2691002 1.5473309 -0.9077609 1.8474382 -1.6597627 0.8673097 -4.5134860 2.7693640 2.0756102 0.7578484 -1.6871478 -0.9226098 -4.8052222 -0.9149962 3.4878555 -2.6969732 -2.3914857 -1.6183922 -0.0735449 1.5657581 2.3050423 -2.2698451 0.8775080 1.7574372 1.8487338 -4.7466286 -1.4151442 1.3497330 0.7583716 -1.0935379 -1.2884914 4.3512685 -0.3481923 4.1537024 1.1558146 2.4803228 1.1485794 -3.9804832 1.2810762 -1.0191402 0.5910876 0.6793226 2.6998739 -1.0245363 -2.4927597 -0.6306721 4.1792488 -1.1336979 0.3529861 -3.3101920 -1.8000234 -1.3808006 0.2130078 2.3022935 2.4279141 -1.0065989 2.4629211 3.2725790 -2.0411311 -5.1390472 -0.0092775 -3.9414148 1.9148365 5.5243778 -0.0688714 -3.7394814 -4.1311425 4.9698266 -5.6158271 0.3453709 -0.7006794 5.2809192 -5.4018828 3.6008856 -2.2998957 0.9506015 -0.8315711 1.2019236 1.5751425 -0.8875052 -0.7275031 1.2482676 0.1995208 -1.3106912 0.9755373 4.4651993 -1.3286483 2.9838335 0.4871391 4.7108916 3.2583643 3.2972497 -5.0971255 0.5904990 -1.2113207 -1.5004525 1.0050905 -0.6690104 1.3198765 -3.5799283 -2.3329891 -1.8985911 1.8128103 -2.5884729 -2.3010850 4.9437897 -2.7130176 2.9619742 1.9953686 3.1540473 -3.1072118 4.3952642 -2.7119771 4.5956764 1.3914954 2.2941749 1.1277136 -3.2511630 -1.3100918 0.3415960 -0.5172597 3.1373783 4.7795638 -4.0189827 5.0068465 1.7357329 1.7394360 -0.8681772 -4.2018838 4.9150295 2.3515567 2.9356915 -4.0557676 0.7901700 -2.9808450 2.3802856 0.7294752 0.4302251 -3.5199204 1.9696322 3.7221216 0.3802356 3.2043667 2.4778311 -4.4458567 2.4601032 -0.8534176 3.5203802 -2.0390600 -4.9941977 -0.9237905 -4.6735378 -1.7279639 -1.3983925 1.7365973 -3.9850988 0.7855351 -3.4263516 -2.5374214 1.1936269 2.4436574 -2.9961613 4.3988992 2.5347003 -5.3397154 0.2589540 3.8127018 2.9853181 -3.5105052 1.5379108 -4.0495590 0.1706583 4.2948005 1.2772597 -2.4413307 3.0277858 -1.8737940 -3.1686882 5.5846421 1.9940137 0.7921697 3.2677076 0.9125655 -1.1736722 4.1984569 -3.1096049 -1.4682447 0.4493540 3.9280153 -2.0956046 -2.4354663 -4.4601829 3.1239802 -2.3915071 -0.2712521 5.2232644 -1.4099126 -3.1313661 -2.4814553 -1.8514521 -3.0170136 4.7860287 -2.5018864 -2.9139326 -1.7830343 -0.6341684 -3.0068395 -3.9114159 -1.2044820 -2.4348534 -3.5167447 3.5050946 -3.1952070 -1.0742317 2.2251281 2.6194874 4.3489393 -5.2445540 -2.3257850 -1.5134720 -4.6270515 1.3092805 3.1965180 4.1032472 -4.8654205 -4.4407225 3.6843699 2.3583510 3.0696540
decoder -0.4105892 -1.8329707 -1.3878727 -4.2622745 3.0068319 4.3882198 -4.9006169 -3.9019373 5.2148394 -4.0102723 3.1138483 -3.6600755 3.7007465 1.6550703 -4.8373566 -0.7784385 2.5419173 -0.4331330 -2.9870724 -3.5673481 -2.9332408 0.6049570 0.6211875 4.9707204 4.7144784 -5.4469297 1.8464259 1.7313161 -3.0954977 -1.7980102 1.5389027 4.3606765 -2.2856800 -1.3310549 -2.8269087 -3.0752448 3.9763012 0.3886559 -3.3531645 3.3698439 -2.2953507 0.0650053 1.7626441 -4.0529720 -3.3128391 1.6756442 -2.3438228 -3.1366853 4.1861163 -1.0626974 -0.7695930 -4.4063451 0.5262083 2.3527107 -1.8966967 -0.6598290 -1.0547844 -2.7053358 4.6675825 4.0011859 1.0072143 -0.1086827 3.2957030 -2.5534175 4.5919859 2.8235679 -3.6753882 2.6061857 3.7629689 3.0861622 0.1367153 0.3887780 -2.8353301 -2.9758989 1.4979869 3.4907013 -2.8735452 1.2973756 1.2505597 -1.6004885 2.3473512 -0.7145523 -3.1228780 4.0014137 -6.0151753 2.7486215 3.5313387 -3.1299916 -0.0311683 4.9429016 -1.8611336 0.6019034 -1.1003474 3.2978179 -4.7106328 -0.6257117 -4.0083971 -4.1831050 2.2772086 0.5897344 -1.7348860 1.0976442 -4.8681945 -3.8581796 3.7967205 -3.0609262 3.9289989 -2.1344507 -4.5503456 -2.1512565 5.8324653 3.8179943 0.4000001 3.1856698 -4.8804024 -4.7984200 3.5217711 4.3502648 -1.7705972 1.8327955 -0.0787854 -1.6808903 -1.3907312 4.1654131 -3.1294785 2.3919831 0.7948185 0.6839782 -2.6696460 3.4540965 4.2690536 -0.3001482 0.3030126 3.9792870 1.5020094 -0.6902215 4.7820518 3.1624145 -2.5392984 1.1309289 -2.7092822 -0.6032538 0.6213374 -3.6078511 -1.5004345 -3.0586290 -4.3114088 2.4820401 2.5261245 -1.4961434 -4.3842321 -1.7434424 4.3133623 -3.5674589 3.8787437 -4.0572326 4.4782107 3.7448837 1.0934869 3.0451653 -1.4039398 -3.5373101 -3.5602905 2.7100196 0.8941559 -1.1391618 -3.4179368 -4.9976538 -0.7216215 -2.3543197 -1.4755114 -3.7973936 -4.3350501 1.9688669 1.3334974 0.4989020 5.1331353 0.7559022 -2.0368350 -1.5221583 3.7851850 4.6629517 -1.6603253 -3.2948169 3.6649022 3.0387150 -1.1567902 -0.8695010 -3.4051673 -0.4313878 -4.1991979 -2.3220013 2.8276614 -1.3589471 0.4707291 -3.7974519 2.1486661 -4.4315687 -0.5917014 4.3990492 1.5535811 -1.6950751 -2.9744108 4.3534983 -0.2755894 -1.5902359 3.7872797 1.8917144 -1.2157123 -4.0724792 -4.0780259 0.7264506 -1.2004591 2.9886596 1.6512361 -3.5423683 -1.2867308 -3.1045581 -4.5459213 -1.6202395 -2.0623327 0.7427452 2.4473476 5.3406501 -1.0198483 4.5829158 2.6986689 -2.6207180 -1.5129888 -0.9200785 -1.5001899 0.6496466 4.0396250 2.2482005 0.2822305 -5.1397350 -2.3395516 0.1136926 -0.0960554 2.7227366 5.2894002 -2.7017815 3.6005860 4.1369506 -0.2461909 -1.9403591 -2.9594531 -3.2170458 2.6120918 -4.0527634 -1.6092999 -3.0795094 -1.9852283 -4.5940756 -3.8431025 1.2165644 4.9082738 3.9033762 5.4414512 -4.6434144 -0.2582332 4.6188861 -2.2754536 1.1555942 -0.8976356 2.7193516 -2.7512409 0.0901967 -3.2134105 1.3190653 -1.0513599 -5.9829357 2.5068773 -0.0005458 -1.9049701 1.4214008 3.9814942 1.0161475 2.7909270 -0.5636473 -1.5368627 -1.6538024 1.7499402 4.6337752 -0.7647267 5.4258999 2.1689380 -1.7675245 3.8567885 -4.7243294 2.5116376 1.5169814 0.3376442 3.6247664 2.0220952 -3.8424340 -1.1415046 1.7951038 -3.4898467 -2.1807373
integrate 3.7710181 -2.9739004 -2.5818781 3.2547288 -0.3428958 -2.3213261 -4.5798710 3.8384265 0.3574169 0.4822932 -1.6352752 -3.9732099 -0.3229401 -2.3473845 -3.8302530 -3.0368883 4.1833875 4.4072649 -4.9117210 -1.9682951 4.5266302 -1.7600981 5.1061561 2.1973091 1.3531521 -4.7258114 0.1947761 4.5465507 -3.3816204 3.5302944 4.0777699 -1.4848798 -3.6529171 3.2601504 -2.8765402 -1.4692105 2.8830344 -2.9908218 -3.8617545 5.0215959 0.1968924 4.1334665 1.1694923 -2.3597016 -1.8446894 2.4540139 -4.4644470 0.1261244 2.0895014 -0.5256683 0.0164463 -1.8462835 -3.4047813 2.8326786 -2.8305828 3.2090907 2.6097190 5.4277290 1.5364726 0.2116550 -4.2011762 4.3565078 0.5051021 0.9302328 4.5404989 0.6768106 -3.6285981 -2.4276984 3.9437703 -3.7627123 2.1668569 3.1066824 3.2616340 1.1343413 2.7777962 -3.0606257 -2.9546768 3.2289125 4.1523767 -0.3250143 -1.4892828 -0.9908005 0.3175459 -3.6523312 -0.0625460 -3.7648530 -4.8059497 1.8951487 -3.4801917 -4.8488717 0.7469930 -2.4451208 -3.2955185 1.3450948 4.0287205 2.6068733 0.9025065 -1.0184363 -1.2739923 3.8795334 -3.5690429 -4.1889092 -1.0894290 2.1686710 -3.1871970 1.3387587 0.3481255 -0.3084536 -2.8803012 -5.3352575 -0.1702255 1.2977222 -2.4806567 0.2147592 3.6951062 4.8455831 -0.1060935 -1.8850201 -3.5075722 1.1804468 -1.0115088 -2.2044085 0.1596949 -2.6226570 0.8872461 -3.4411647 -3.2378878 -4.4902758 1.3499405 4.8058002 -3.1323234 -2.6637950 -1.2456917 0.7995250 0.1358597 -0.9522633 2.7966043 0.7777875 0.9810134 -2.5509493 -4.7105897 -0.7350701 3.4068183 1.2361724 1.2628926 1.1325009 3.9936848 -1.5187151 -0.6917599 -2.6611579 1.1475817 5.1101094 -2.7737724 -2.2182608 4.6795607 1.0005214 -1.5811923 1.0223589 -1.7532310 -4.1564826 0.6806549 -3.2321039 -2.7537030 -0.9118461 -1.0308023 -2.8478321 -2.4968719 2.8242151 2.6239411 1.9260983 3.0284290 -0.3864628 2.9031111 -4.2180173 -1.7055200 -3.2777586 0.3514534 -3.7254865 3.5534876 1.0061622 -4.4966901 0.7358737 0.4999606 -1.8589959 0.2841991 -0.8736013 -3.1265974 -3.4390934 -1.4057575 4.0780390 0.8651414 -4.8631278 -3.7932441 2.5942637 -4.7573971 -0.3684128 1.1093265 -3.6669953 3.6314136 2.5816064 -1.6827847 -2.1607834 -0.9021285 -4.9622061 4.9664602 -3.9216569 1.0294973 -1.3292912 0.8647922 1.1089834 -2.1025860 1.3710557 0.3520264 1.8922609 -3.4171663 2.4626417 2.6656830 -0.3601884 0.0415907 4.0236802 1.5389303 1.4859390 -2.0690842 1.2296037 -3.2620585 2.5406671 -5.2537245 3.6790066 -1.8967451 -3.5435595 2.6792701 1.5466882 -4.4286226 4.3053095 -0.8577643 1.6655603 -1.9622671 0.7916799 0.2279734 2.4798220 4.9114638 5.1157323 1.6477397 -4.3087078 -1.8858587 -3.4331117 -3.8690814 -2.2440400 4.6753655 -2.9296638 1.0584136 3.5998724 1.7092408 2.8580613 -0.1914224 -1.6767373 0.4855771 -1.5912987 0.9356936 1.6539554 -0.8421789 -0.5478737 -4.3645175 0.4340248 1.0196507 -2.2734198 1.4002993 -1.1578636 0.9105255 -4.3717947 3.1903287 -1.2769078 -4.4617584 -2.0178400 -0.2436183 5.1450207 -2.0427232 -4.8240938 -4.2881809 1.4442135 -2.1880243 0.7729209 0.7876118 -1.8035997 1.3562473 -3.4499342 2.0581707 3.6051056 -1.7582652 3.3644994 -3.1074174 1.9266923 -2.1382799 -0.7749544 -4.5472328 -4.0312494 1.4524596 0.6858758 -1.3609165 3.0847363
